tree
version=v4
num_class=1
num_tree_per_iteration=1
label_index=0
max_feature_idx=22
objective=regression
feature_names=score_country score_sector score_capital score_momentum_span score_momentum_creation score_momentum_freq score_momentum_recency score_momentum_interround score_momentum_recency_ratio score_momentum_avg_round score_momentum_per_year score_age score_diversification score_inflation score_gdp_growth score_unemployment_rate score_total country_rate_shrink woe_years_since_founded woe_funding_total_usd inflation_x_country_rate_shrink gdp_growth_x_country_rate_shrink unemployment_rate_x_country_rate_shrink
monotone_constraints=0 0 0 0 0 0 0 0 0 0 0 0 0 0 0 0 0 1 1 1 1 1 1
feature_infos=[1:7] [1:7] [1:7] [1:7] [1:7] [3:7] none [1:434] [1:7] [1:7] [1:7] [1:3] [1:5] [1:7] [1:5] [1:7] [2.5499999999999998:13.675000000000002] [0.014705882352941176:0.31472081218274112] [-0.59654657899407404:0.66923434612122346] [-0.85393180085807763:0.50289633998485606] [-0.053465346534653485:7.0545138888888905] [0.0075288904663278079:1.5367937946340857] [0.027096774193548393:1.568041237113402]
tree_sizes=2811 2923 2922 2918 2921 2898 2917 2903 2928 2936 2945 2946 2933 2961 2951 2953 2934 2967 2965 2911 2951 2945 2952 2945 2959 2947 2957 2946 2950 2986 2948 2941 2950 2943 2990 2949 2949 2986 2966 2937 2948 2955 2983 2960 2967 2971 2982 2963 2985 2950 2948 2990 3008 3010 3007 2995 3022 2968 3031 2992 3010 2966 2987 3021 3003 2969 2953 2960 3002 2953 2970 2994 3011 2934 3038 2974 2987 2970 2965 2947 2980 2936 3008 2970 2986 3025 2949 2943 2966 2993 2943 2978 2963 2930 2921 2930 2952 2986 2948 2938 2945 2958 2960 2992 2950 2973 2956 2919 2980 2929 2955 2972 2904 3003 2949 2945 2978 2919 3030 2987 2944 3009 2966 2927 2937 2965 2983 2976 2963 2959 2985 2947 2950 2923 2978 2931 2935 2912 2956 2951 2916 2934 2951 2937 2985 2957 2985 2958 2932 2964 2914 2949 2936 2936 2931 2980 2934 2912 2997 2969 2937 2948 2948 2959 2913 2914 2935 2968 2971 2958 2994 2952 2997 2950 2947 2958 2942 2955 2932 2933 2932 2899 2987 2979 2940 2952 2937 2925 2942 2951 2939 2929 2943 2949 2931 2934 2940 2963 2964 2953 2979 2928 2947 2923 2985 2920 2947 2935 2951 2962 2929 2972 2936 2910 2974 2940 2915 3003 2935 2902 2905 2962 2961 2919 2940 3015 2922 2911 2925 2972 2913 2931 2945 2899 2917 2955 2896 2898 2942 2959 2972 2950 2956 2954 2948 2933 2948 2924 2904 2924 2936 2925 2966 2908 2934 2937 2939 2909 2913 2893 2954 2940 2895 2923 2976 2973 2934 2938 2938 2936 2938 2924 2916 2906 2912 2924 2934 2906 2946 2974 2919 2922 2938 2931 2982 2981 2944 2934 2943 2958 2921 2926 2954 2963 2910 2916 2918 2977 2921 2938 2932 2948 2976 2969 2936 2966 2919 2956 2958 2917 2937 2953 2954 2962 2932 2897 2912 2937 2967 2929 2947 2971 2953 2936 2950 2917 2957 2929 2990 2940 2908 2935 2974 2939 2965 2926 2954 2926 2970 2940 2940 2976 2920 2960 2930 2916 2939 2958 2955 2949 2919 2950 2985 2937 2911 2974 2938 2915 2980 2949 2949 2917 2954 2921 2958 2939 2960 2925 2920 2972 2956 2933 2974 2931 2994 2918 2986 2940 2922 2904 2934 2963 2930 2921 2941 2941 2946 2943 2931 2944 2958 2960 2939 2942 2935 2937 2933 2917 2941 2954 2951 2936 2934 2955 2937 2937 2941 2986 2950 2974 2951 2947 2997 2909 2958 2938 2941 2965 2962 2936 2932 2946 2974 2951 2921 2925 2947 2935 2918 2955 2938 2917 2934 2911 2939 2939 2942 2965 2957 2957 2970 2959 2920 2937 2926 2959 2943 2923 2896 2957 2916 2893 2962 2925 2929 2938 2911 2928 2921 2933 2935 2968 2914 2926 2924 2924 2906 2935 2958 2937 2936 2909 2942 2944 2930 2950 2946 2928 2966 2939 2956 2925 2920 2971 2965 2930 2930 2927 2931 2944 2944 3021 2958 2950 2966 2941 2938 2961 2966 2936 2931 2950 2922 2951 2956 2932 2984 2941 2920 2960 2921 2913 2973 2933 2961 2948 2974 2915 2934 2955 2987 2930 2970 2956 2960 2936 2975 2930 2969 2929 2944 2939 2927 2947 2949 2982 2930 2947 2916 2955 2942 2918 2947 2934 2965 2922 2972 2940 2955 2950 2939 2958 2929 2959 2929 2952 2951 2948 2942 2947 2942 2934 2942 2974 2942 2928 2941 2918 2920 3020 2955 2969 2936 2913 2937 2961 2946 2954 2950 2948 2918 2968 2943 2920 2945 2949 2932 2952 2919 2932 2954 2944 2940 2969 2926 2935 2987 2946 2965 2973

Tree=0
num_leaves=31
num_cat=0
split_feature=1 17 7 0 8 7 4 0 1 10 9 7 12 7 8 16 17 7 4 4 7 4 9 7 22 7 7 7 4 16
split_gain=191.421 102.779 35.3227 33.1309 29.6857 25.7394 32.0441 15.2613 11.0848 9.46572 11.7532 7.42545 6.37653 5.64667 5.43359 4.35512 4.24208 4.14373 4.55515 4.02135 4.00292 3.86589 3.47052 3.46703 2.87971 2.83927 2.78069 3.35598 2.42344 2.22568
threshold=6.0000000000000009 0.22060826933923383 14.500000000000002 4.0000000000000009 6.0000000000000009 13.500000000000002 2.0000000000000004 2.0000000000000004 2.0000000000000004 6.0000000000000009 4.0000000000000009 21.500000000000004 4.0000000000000009 15.500000000000002 6.0000000000000009 4.4125000000000023 0.22060826933923383 14.500000000000002 2.0000000000000004 4.0000000000000009 16.500000000000004 6.0000000000000009 4.0000000000000009 13.500000000000002 0.2234287186212065 8.0000000000000018 10.500000000000002 11.500000000000002 4.0000000000000009 4.337500000000003
decision_type=2 8 2 2 2 2 2 2 2 2 2 2 2 2 2 2 10 2 2 2 2 2 2 2 10 2 2 2 2 2
left_child=1 2 19 7 -4 -5 14 15 9 -3 11 -11 25 21 -7 -2 -14 -9 -19 -1 -16 -8 -23 -21 -15 -10 -27 -28 -26 -29
right_child=3 8 4 5 -6 6 13 17 12 10 -12 -13 16 24 20 -17 -18 18 -20 23 -22 22 -24 -25 28 26 27 29 -30 -31
leaf_value=0.093417137568463912 0.10326166559039499 0.11722862093336558 0.092393227460666597 0.091473650304022214 0.10215748611360029 0.091292757614678824 0.094131440114196663 0.094811930011388046 0.10215748611360029 0.10409002927325571 0.11933171650315808 0.11848782380487222 0.10215748611360029 0.094408107602774557 0.092027155168603741 0.11661323630422606 0.11462236867981801 0.095017607406225599 0.10103105469633654 0.095430283647797987 0.095044151193449319 0.094384614515929124 0.10057022519294864 0.10097862057014978 0.097818364089256135 0.11458854490094598 0.10215748611360029 0.11138672777988717 0.10104460850525972 0.10338246677772608
leaf_weight=2973 329 390 803 32661 2291 5912 1886 3778 151 790 193 101 696 351 2093 75 73 610 651 2886 2316 382 558 312 1300 162 135 337 1054 117
leaf_count=2973 329 390 803 32661 2291 5912 1886 3778 151 790 193 101 696 351 2093 75 73 610 651 2886 2316 382 558 312 1300 162 135 337 1054 117
internal_value=0.0939788 0.099578 0.096927 0.092691 0.101287 0.092276 0.0939292 0.09639 0.107388 0.110549 0.108145 0.105722 0.1046 0.097 0.0922835 0.10574 0.102157 0.0956403 0.0981221 0.0947409 0.093612 0.095437 0.0980565 0.0959716 0.098633 0.107517 0.108787 0.107192 0.0992629 0.109324
internal_weight=66366 12410 9265 53956 3094 48513 15852 5443 3145 1474 1084 891 1671 5531 10321 404 769 5039 1261 6171 4409 2826 940 3198 2705 902 751 589 2354 454
internal_count=66366 12410 9265 53956 3094 48513 15852 5443 3145 1474 1084 891 1671 5531 10321 404 769 5039 1261 6171 4409 2826 940 3198 2705 902 751 589 2354 454
is_linear=0
shrinkage=1


Tree=1
num_leaves=31
num_cat=0
split_feature=1 17 7 0 8 7 4 0 1 10 9 16 12 7 4 8 16 7 2 17 4 7 4 7 7 9 7 7 16 12
split_gain=173.408 91.6211 32.7372 29.9007 26.9416 23.2298 28.9198 13.7733 10.2273 8.54281 10.6073 6.91686 5.86051 5.20207 5.29955 4.90381 3.9305 3.90299 3.76695 3.7667 3.62927 3.61264 3.24248 3.129 2.57817 2.529 2.5271 3.08445 2.18357 2.14169
threshold=6.0000000000000009 0.22060826933923383 14.500000000000002 4.0000000000000009 6.0000000000000009 13.500000000000002 2.0000000000000004 2.0000000000000004 2.0000000000000004 6.0000000000000009 4.0000000000000009 3.7625000000000006 4.0000000000000009 16.500000000000004 6.0000000000000009 6.0000000000000009 4.4125000000000023 8.0000000000000018 6.0000000000000009 0.22060826933923383 4.0000000000000009 16.500000000000004 6.0000000000000009 13.500000000000002 8.0000000000000018 4.0000000000000009 10.500000000000002 11.500000000000002 4.4375000000000027 4.0000000000000009
decision_type=2 8 2 2 2 2 2 2 2 2 2 2 2 2 2 2 2 2 2 10 2 2 2 2 2 2 2 2 2 2
left_child=1 2 20 7 -4 29 15 16 9 -3 11 -11 24 14 -8 -7 -2 -9 -16 -14 28 -17 -19 -22 -10 -24 -26 -28 -1 -5
right_child=3 8 4 5 -6 6 13 17 12 10 -12 -13 19 -15 18 21 -18 22 -20 -21 23 -23 25 -25 26 -27 27 -29 -30 -31
leaf_value=0.00022116617031589172 0.0088186799007889723 0.022087286752768054 -0.0015063362917485897 -0.0028545578608222071 0.0077669390506632831 -0.0025517828085778616 0.00039185180680067913 -0.00088497714503951708 0.0077669390506632831 0.0089549384347645134 0.024085227596945098 0.019973085232581317 0.0077669390506632831 0.0049588421149064912 0.0025359329393384485 -0.001854105048127227 0.021502672195434572 0.0015598333836222902 0.0085550069254543403 0.019611347660626454 0.0013788670967497599 0.0010120412431309878 0.0011843993456090152 0.0066497870183621468 0.019579214409545617 0.0068564705005203829 0.0077669390506632831 0.01457785517633749 -0.0029663113877177239 -0.002034537503326338
leaf_weight=2269 329 390 803 13757 2291 5912 2402 1219 151 713 193 178 696 1937 809 2093 75 2927 383 73 2886 2316 292 312 162 601 135 454 704 18904
leaf_count=2269 329 390 803 13757 2291 5912 2402 1219 151 713 193 178 696 1937 809 2093 75 2927 383 73 2886 2316 292 312 162 601 135 454 704 18904
internal_value=2.29904e-06 0.00533154 0.00282849 -0.00122344 0.00702594 -0.0016177 -4.72024e-05 0.00229055 0.0127054 0.0157412 0.0134581 0.0111561 0.0100275 0.00287012 0.0017444 -0.00161059 0.0111734 0.00157837 0.00446991 0.00776694 0.000723981 -0.000348549 0.00236445 0.0018931 0.0128374 0.00500177 0.0140488 0.0125276 -0.000533622 -0.00237993
internal_weight=66366 12410 9265 53956 3094 48513 15852 5443 3145 1474 1084 891 1671 5531 3594 10321 404 5039 1192 769 6171 4409 3820 3198 902 893 751 589 2973 32661
internal_count=66366 12410 9265 53956 3094 48513 15852 5443 3145 1474 1084 891 1671 5531 3594 10321 404 5039 1192 769 6171 4409 3820 3198 902 893 751 589 2973 32661
is_linear=0
shrinkage=0.05


Tree=2
num_leaves=31
num_cat=0
split_feature=1 17 7 0 8 7 4 0 1 7 7 12 7 8 16 7 4 16 17 4 7 4 7 9 7 22 7 2 4 7
split_gain=157.121 81.6148 30.3731 26.9854 24.4401 20.9649 26.1001 12.4304 9.44433 7.98353 11.3368 5.38505 4.72117 4.42569 4.14482 3.68128 4.05707 3.54728 3.33414 3.27541 3.26041 3.11557 2.96927 2.95868 2.82392 2.60767 2.38357 2.19117 2.1499 2.09366
threshold=6.0000000000000009 0.22060826933923383 14.500000000000002 4.0000000000000009 6.0000000000000009 13.500000000000002 2.0000000000000004 2.0000000000000004 2.0000000000000004 21.500000000000004 10.500000000000002 4.0000000000000009 15.500000000000002 6.0000000000000009 3.5625000000000004 14.500000000000002 2.0000000000000004 4.4125000000000023 0.22060826933923383 4.0000000000000009 16.500000000000004 6.0000000000000009 16.500000000000004 4.0000000000000009 13.500000000000002 0.2234287186212065 20.500000000000004 2.0000000000000004 4.0000000000000009 10.500000000000002
decision_type=2 8 2 2 2 2 2 2 2 2 2 2 2 2 2 2 2 2 10 2 2 2 2 2 2 10 2 2 2 2
left_child=1 2 19 7 -4 -5 13 17 9 10 14 26 21 -7 -3 -9 -17 -2 -13 -1 -15 -8 -12 -23 29 -14 -10 -18 -27 -21
right_child=3 8 4 5 -6 6 12 15 11 -11 22 18 25 20 -16 16 27 -19 -20 24 -22 23 -24 -25 -26 28 -28 -29 -30 -31
leaf_value=-0.00050694053717586596 0.008377745868723082 0.015993369216931629 -0.0014310195132774554 -0.0022609379313269563 0.0073758606241718181 -0.0024241935834792699 0.00012537312189221761 0.00071868441580874131 0.011233619042208896 0.025213893764607965 0.0088288116185145458 0.0073758606241718181 0.00019940079808065353 -0.0017613998317456509 0.025998617706669343 0.00090883263066166746 0.01368947694859197 0.02042753851413727 0.018630780095923439 0.0023498080473030565 0.00096143922078485938 0.00025868454840794912 0.015669368139067712 0.0059699754447652877 0.0063172976940106124 0.0034586209881191073 0.019215000568414634 0.0053997456706980224 0.0064973403075868994 -0.00043414946168605825
leaf_weight=2973 329 235 803 32661 2291 5912 1886 3778 796 168 679 696 351 2093 185 610 93 75 73 1808 2316 382 207 558 312 1300 106 558 1054 1078
leaf_count=2973 329 235 803 32661 2291 5912 1886 3778 796 168 679 696 351 2093 185 610 93 75 73 1808 2316 382 207 558 312 1300 106 558 1054 1078
internal_value=4.49009e-06 0.00507729 0.00271488 -0.00116227 0.00675793 -0.00153681 -4.48422e-05 0.00217602 0.0120368 0.0149542 0.0136344 0.00946345 0.00272662 -0.00153006 0.0204004 0.00149946 0.00383867 0.0106147 0.00737586 0.000687782 -0.000331122 0.00129742 0.010427 0.003649 0.00179845 0.00421974 0.0121716 0.00658399 0.0048192 0.00130992
internal_weight=66366 12410 9265 53956 3094 48513 15852 5443 3145 1474 1306 1671 5531 10321 420 5039 1261 404 769 6171 4409 2826 886 940 3198 2705 902 651 2354 2886
internal_count=66366 12410 9265 53956 3094 48513 15852 5443 3145 1474 1306 1671 5531 10321 420 5039 1261 404 769 6171 4409 2826 886 940 3198 2705 902 651 2354 2886
is_linear=0
shrinkage=0.05


Tree=3
num_leaves=31
num_cat=0
split_feature=1 0 7 8 0 7 4 0 1 7 7 4 1 7 17 12 7 4 16 8 7 7 12 2 16 9 7 4 15 4
split_gain=142.477 73.1105 27.1003 26.4061 24.3543 18.9208 23.5554 11.2184 11.0961 6.92408 10.0691 6.27169 5.68771 4.42221 4.54086 4.47737 4.36574 4.39759 4.09751 3.99418 3.64651 3.40591 3.35441 3.24643 3.20142 3.15561 2.94252 2.93831 2.75768 2.65625
threshold=6.0000000000000009 4.0000000000000009 14.500000000000002 6.0000000000000009 4.0000000000000009 13.500000000000002 2.0000000000000004 2.0000000000000004 2.0000000000000004 21.500000000000004 10.500000000000002 2.0000000000000004 2.0000000000000004 15.500000000000002 0.22060826933923383 4.0000000000000009 16.500000000000004 6.0000000000000009 3.5625000000000004 6.0000000000000009 15.500000000000002 8.0000000000000018 2.0000000000000004 6.0000000000000009 4.4125000000000023 4.0000000000000009 16.500000000000004 6.0000000000000009 4.0000000000000009 6.0000000000000009
decision_type=2 2 2 2 2 2 2 2 2 2 2 2 2 2 10 2 2 2 2 2 2 2 2 2 2 2 2 2 2 2
left_child=1 8 29 -4 7 -6 19 24 9 10 18 12 -5 14 15 28 17 -8 -1 -7 22 -9 -13 -19 -2 -12 -21 -23 -10 -3
right_child=4 2 3 11 5 6 16 21 13 -11 25 20 -14 -15 -16 -17 -18 23 -20 26 -22 27 -24 -25 -26 -27 -28 -29 -30 -31
leaf_value=0.014982208339497448 0.0079588587896892733 -0.00018673936268238779 -0.0015391200818881696 0.011382372672134161 -0.0021478910065172484 -0.0023029837230565744 0.00032693044833845145 -0.00087666229709335009 0.0097973360082893035 0.023701625601576931 0.0090946486995865904 0.016357208208905329 0.0026827799005653052 0.012585848157454019 0.016047246544621887 0.0027322909307567998 0.0045037537320840584 0.0022463908181865372 0.024767856087554923 -0.0016733297689275426 0.012641170517418296 0.0013928491088934306 0.0042432890552691173 0.0078341448168919546 0.019406160295009616 0.018959932766026921 0.00091336707203344973 0.0046693752625120719 -0.00065464983029024952 0.0020554064097208736
leaf_weight=240 329 4047 784 287 32661 5912 2402 1219 641 173 816 72 544 495 128 541 1937 809 193 2093 1051 2927 277 383 75 90 2316 893 70 1961
leaf_count=240 329 4047 784 287 32661 5912 2402 1219 641 173 816 72 544 495 128 541 1937 809 193 2093 1051 2927 277 383 75 90 2316 893 70 1961
internal_value=6.90335e-06 0.00483754 0.00248625 0.00635439 -0.00110415 -0.00145997 -4.26e-05 0.00206722 0.0111014 0.0142883 0.0130721 0.00912826 0.00568733 0.00853146 0.00707716 0.00616009 0.00259028 0.00155901 0.0193439 -0.00145356 0.0111707 0.00142448 0.00674244 0.00404178 0.010084 0.0100746 -0.000314566 0.0021588 0.00876831 0.000545093
internal_weight=66366 12410 9023 3015 53956 48513 15852 5443 3387 1512 1339 2231 831 1875 1380 1252 5531 3594 433 10321 1400 5039 349 1192 404 906 4409 3820 711 6008
internal_count=66366 12410 9023 3015 53956 48513 15852 5443 3387 1512 1339 2231 831 1875 1380 1252 5531 3594 433 10321 1400 5039 349 1192 404 906 4409 3820 711 6008
is_linear=0
shrinkage=0.05


Tree=4
num_leaves=31
num_cat=0
split_feature=1 0 7 8 0 7 4 0 1 10 9 4 16 1 7 7 17 12 8 7 7 8 12 16 7 4 7 7 1 9
split_gain=128.586 65.9822 24.458 23.8315 21.9797 17.076 21.2587 10.1246 10.0142 6.56014 8.5672 5.66019 5.19681 5.13316 4.04162 4.00674 3.90588 4.14909 3.60475 3.29098 3.26479 3.7267 3.02735 2.88928 2.65562 2.46324 2.68303 4.23085 3.11663 2.38156
threshold=6.0000000000000009 4.0000000000000009 14.500000000000002 6.0000000000000009 4.0000000000000009 13.500000000000002 2.0000000000000004 2.0000000000000004 2.0000000000000004 6.0000000000000009 4.0000000000000009 2.0000000000000004 3.7625000000000006 2.0000000000000004 16.500000000000004 14.500000000000002 0.22060826933923383 4.0000000000000009 6.0000000000000009 15.500000000000002 14.500000000000002 6.0000000000000009 2.0000000000000004 4.4125000000000023 16.500000000000004 4.0000000000000009 12.500000000000002 10.500000000000002 2.0000000000000004 6.0000000000000009
decision_type=2 2 2 2 2 2 2 2 2 2 2 2 2 2 2 2 10 2 2 2 2 2 2 2 2 2 2 2 2 2
left_child=1 8 25 -4 7 -6 18 23 9 -1 12 13 -11 -5 16 -8 17 -10 -7 22 -9 -22 -13 -2 -20 -3 27 28 -27 -12
right_child=4 2 3 11 5 6 15 20 14 10 29 19 -14 -15 -16 -17 -18 -19 24 -21 21 -23 -24 -25 -26 26 -28 -29 -30 -31
leaf_value=0.019160077713238889 0.0075609151443811907 -0.00052537674579050913 -0.0014621641743472037 0.010813253598761476 -0.0020404964692739857 -0.0021878347023867868 0.00045251200625470809 0.00061797962724657656 0.0085460864923934034 0.0075672829211088895 0.024774990460047358 0.01553934688369433 0.017107109871975494 0.0025486408828702921 0.012583963991487658 0.0033625664140171244 0.014975968337453464 0.0029448002501059386 -0.0015896632448657529 0.012009111412585519 -0.00059039395961094662 0.0053379855433356473 0.0040311245308240831 0.018435852964719137 0.00086769865237060608 0.01014688125412379 0.0044180511929996459 -0.0024932568306835854 0.0015263898404775673 0.014295511208074067
leaf_weight=390 329 2914 784 287 32661 5912 1714 3778 752 721 130 72 178 544 397 3817 136 590 2093 1051 379 882 277 75 2316 112 628 712 1642 93
leaf_count=390 329 2914 784 287 32661 5912 1714 3778 752 721 130 72 178 544 397 3817 136 590 2093 1051 379 882 277 75 2316 112 628 712 1642 93
internal_value=6.55813e-06 0.00459566 0.00236193 0.00603667 -0.00104895 -0.00138697 -4.04701e-05 0.00196386 0.0105463 0.0135739 0.0116322 0.00867185 0.00945615 0.00540297 0.00810488 0.00246077 0.00690177 0.00608352 -0.00138088 0.0106122 0.00135326 0.00355618 0.00640531 0.00957978 -0.000298838 0.000517838 0.00150036 0.000757333 0.00207684 0.0204046
internal_weight=66366 12410 9023 3015 53956 48513 15852 5443 3387 1512 1122 2231 899 831 1875 5531 1478 1342 10321 1400 5039 1261 349 404 4409 6008 3094 2466 1754 223
internal_count=66366 12410 9023 3015 53956 48513 15852 5443 3387 1512 1122 2231 899 831 1875 5531 1478 1342 10321 1400 5039 1261 349 404 4409 6008 3094 2466 1754 223
is_linear=0
shrinkage=0.05


Tree=5
num_leaves=31
num_cat=0
split_feature=1 0 7 8 0 7 4 0 1 7 7 4 1 7 12 7 4 16 0 8 7 7 2 7 7 12 7 4 7 16
split_gain=116.049 59.5489 22.0733 21.5079 19.8367 15.4111 19.186 9.13749 9.03782 5.9628 8.32229 5.10833 4.63268 3.87056 3.81386 3.74704 3.97439 3.6423 3.40681 3.25329 2.97131 2.97011 2.92681 2.89845 3.71378 2.73219 2.67093 2.66507 2.64022 2.79631
threshold=6.0000000000000009 4.0000000000000009 14.500000000000002 6.0000000000000009 4.0000000000000009 13.500000000000002 2.0000000000000004 2.0000000000000004 2.0000000000000004 21.500000000000004 10.500000000000002 2.0000000000000004 2.0000000000000004 8.0000000000000018 4.0000000000000009 16.500000000000004 6.0000000000000009 3.5625000000000004 2.0000000000000004 6.0000000000000009 8.0000000000000018 15.500000000000002 6.0000000000000009 10.500000000000002 20.500000000000004 2.0000000000000004 16.500000000000004 6.0000000000000009 11.500000000000002 4.4125000000000023
decision_type=2 2 2 2 2 2 2 2 2 2 2 2 2 2 2 2 2 2 2 2 2 2 2 2 2 2 2 2 2 2
left_child=1 8 -3 -4 7 -6 19 28 9 10 17 12 -5 -10 23 16 -8 -1 -16 -7 -9 25 -18 -15 -25 -13 -12 -22 -2 -30
right_child=4 2 3 11 5 6 15 20 13 -11 26 21 -14 14 18 -17 22 -19 -20 -21 27 -23 -24 24 -26 -27 -28 -29 29 -31
leaf_value=0.013356175304700933 0.0044300824489896693 0.00049194627213285623 -0.0013890557466264891 0.010272591298880893 -0.0019384716425938147 -0.0020784430128946924 0.00021102714703591241 -0.00086372843297951728 0.0027106337526940413 0.021630682133008981 0.0075456403946276189 0.014762379477421442 0.0024212088237297452 0.016888918783072204 0.016515375695058277 0.0041104376871883104 0.0020378850128764127 0.022582261055862349 0.0048990841542959594 -0.00028389565153210094 0.001241997396239332 0.011408656732056053 0.0073434515347991225 0.0078611827665759672 0.01772896663326284 0.0038295684442838612 0.013968551815686068 0.0043624586877303593 0.0094868210724421906 0.022323584716234888
leaf_weight=240 173 6008 784 287 32661 5912 2402 1219 322 173 695 72 544 168 70 1937 809 193 642 4409 2927 1051 383 558 115 277 211 893 175 56
leaf_count=240 173 6008 784 287 32661 5912 2402 1219 322 173 695 72 544 168 70 1937 809 193 642 4409 2927 1051 383 558 115 277 211 893 175 56
internal_value=6.23024e-06 0.00436588 0.00224384 0.00573484 -0.000996498 -0.00131762 -3.84466e-05 0.00186567 0.010019 0.0128952 0.0117666 0.00823826 0.00513282 0.00769964 0.00873406 0.00233773 0.00138233 0.0174685 0.00604114 -0.00131184 0.0012856 0.0100816 0.00374261 0.0110139 0.00954736 0.00608505 0.00904148 0.00197147 0.00910079 0.0125988
internal_weight=66366 12410 9023 3015 53956 48513 15852 5443 3387 1512 1339 2231 831 1875 1553 5531 3594 433 712 10321 5039 1400 1192 841 673 349 906 3820 404 231
internal_count=66366 12410 9023 3015 53956 48513 15852 5443 3387 1512 1339 2231 831 1875 1553 5531 3594 433 712 10321 5039 1400 1192 841 673 349 906 3820 404 231
is_linear=0
shrinkage=0.05


Tree=6
num_leaves=31
num_cat=0
split_feature=1 21 7 0 8 7 4 0 7 1 7 7 17 8 7 8 8 7 7 4 7 16 7 1 4 7 7 9 16 12
split_gain=104.734 53.7741 19.233 17.9026 16.2122 13.9085 17.3153 8.24658 8.1291 5.08635 8.85072 3.43956 3.13779 2.93609 2.89673 3.32942 2.81153 2.83852 2.41388 2.40364 2.3828 2.52367 2.35592 2.29102 2.09632 2.23551 2.04839 2.05211 2.85373 1.96509
threshold=6.0000000000000009 0.39351680163551644 14.500000000000002 4.0000000000000009 6.0000000000000009 13.500000000000002 2.0000000000000004 2.0000000000000004 16.500000000000004 4.0000000000000009 10.500000000000002 14.500000000000002 0.22060826933923383 6.0000000000000009 14.500000000000002 6.0000000000000009 6.0000000000000009 21.500000000000004 18.500000000000004 6.0000000000000009 11.500000000000002 4.4125000000000023 13.500000000000002 4.0000000000000009 4.0000000000000009 17.500000000000004 8.0000000000000018 6.0000000000000009 3.5625000000000004 2.0000000000000004
decision_type=2 8 2 2 2 2 2 2 2 2 2 2 10 2 2 2 2 2 2 2 2 2 2 2 2 2 2 2 2 2
left_child=1 2 19 7 -4 -5 13 20 9 10 26 -8 -11 -7 29 -16 -10 -18 -15 -1 -2 -22 -21 -19 25 -13 -3 28 -28 -9
right_child=3 8 4 5 -6 6 11 14 16 12 -12 24 -14 18 15 -17 17 23 -20 22 21 -23 -24 -25 -26 -27 27 -29 -30 -31
leaf_value=-0.0001563660185212738 0.0042085784363608833 0.0094838648132587744 -0.0013416319957882316 -0.0018415478812747064 0.0058937054771428755 -0.0019745207646249194 0.00036015070566218542 -0.0028713086366419396 0.0064669449742023773 0.0058937054771428755 0.0071187509557865611 0.00047500647689953173 0.013570183769420341 -0.00109077827322701 -0.00062297419853764042 0.0049805058525397936 0.012590554555131096 0.023527676452850477 0.0013972839643967522 0.0013853577455337149 0.0090124803440911443 0.021207404562405177 0.0058937054771428755 0.014349078736267985 0.004272250730394344 0.003871889518525443 0.014601347552469144 0.0092551550020774209 0.024211890289401697 0.00091117564873995853
leaf_weight=4075 173 95 788 32661 2261 5912 1714 382 104 1230 697 1133 135 2954 379 882 394 145 1455 1801 175 56 188 128 1838 846 156 60 153 3396
leaf_count=4075 173 95 788 32661 2261 5912 1714 382 104 1230 697 1133 135 2954 379 882 394 145 1455 1801 175 56 188 128 1838 846 156 60 153 3396
internal_value=5.91883e-06 0.00414758 0.00216788 -0.000946673 0.00540727 -0.00125174 -3.65242e-05 0.00177239 0.00961953 0.00824788 0.0106807 0.00222085 0.00617867 -0.00124624 0.00122132 0.00329635 0.0141134 0.0153057 -0.000269701 0.000539105 0.00864575 0.0119688 0.00196396 0.0192242 0.00305638 0.00192714 0.0160313 0.0177169 0.01936 0.000528722
internal_weight=66366 12410 9113 53956 3049 48513 15852 5443 3297 2526 1161 5531 1365 10321 5039 1261 771 667 4409 6064 404 231 1989 273 3817 1979 464 369 309 3778
internal_count=66366 12410 9113 53956 3049 48513 15852 5443 3297 2526 1161 5531 1365 10321 5039 1261 771 667 4409 6064 404 231 1989 273 3817 1979 464 369 309 3778
is_linear=0
shrinkage=0.05


Tree=7
num_leaves=31
num_cat=0
split_feature=1 0 7 8 0 7 4 1 0 10 9 4 1 16 8 7 12 0 7 12 7 16 7 7 7 4 8 17 7 16
split_gain=95.133 48.109 18.5353 17.9057 16.1571 12.6648 16.408 7.47957 7.44254 4.99361 7.13847 4.61026 4.18099 3.85138 3.84983 3.41074 3.45336 2.98911 2.73283 3.55579 3.18998 2.86116 2.70721 3.142 2.6143 3.09156 2.49116 2.1558 2.15048 2.27761
threshold=6.0000000000000009 4.0000000000000009 14.500000000000002 6.0000000000000009 4.0000000000000009 14.500000000000002 2.0000000000000004 2.0000000000000004 2.0000000000000004 6.0000000000000009 4.0000000000000009 2.0000000000000004 2.0000000000000004 3.7625000000000006 6.0000000000000009 8.0000000000000018 4.0000000000000009 2.0000000000000004 16.500000000000004 2.0000000000000004 18.500000000000004 4.4625000000000021 10.500000000000002 20.500000000000004 14.500000000000002 2.0000000000000004 6.0000000000000009 0.052758097165991912 11.500000000000002 4.4125000000000023
decision_type=2 2 2 2 2 2 2 2 2 2 2 2 2 2 2 2 2 2 2 2 2 2 2 2 2 2 2 10 2 2
left_child=1 7 27 -4 8 26 14 9 28 -1 13 12 -5 -11 -7 -9 22 -18 19 -13 -20 -21 -17 -24 -10 -26 -6 -3 -2 -30
right_child=4 2 3 11 5 6 -8 15 24 10 -12 18 -14 -15 -16 16 17 -19 20 21 -22 -23 23 -25 25 -27 -28 -29 29 -31
leaf_value=0.016527303052254215 0.0039981490227183857 -0.0016464272841403727 -0.0012525216657288223 0.0094642758057923281 -0.002391065085407392 -0.0018038441656756318 0.0029035598551037118 0.0022437329768486645 0.0005022860996429096 0.0063470412231723412 0.017967053876997645 0.014509634425242744 0.0020054631373461556 0.014559632401620405 0.0003176489940841496 0.015745377052752748 0.015146712272294929 0.0042658184518648825 0.014116792587963778 -0.0020658680695598407 0.0079182467282410008 0.0069808442643028339 0.0070991996608968282 0.016175618832526002 0.00057396808608633576 0.0055280236879252072 -0.0014311667260290466 0.00087241239615538143 0.0085618558355740147 0.02014703495161874
leaf_weight=390 173 1024 784 287 9070 5660 3817 322 3778 721 223 114 544 178 3437 168 70 642 428 118 403 337 558 115 610 651 26529 4984 175 56
leaf_count=390 173 1024 784 287 9070 5660 3817 322 3778 721 223 114 544 178 3437 168 70 642 428 118 403 337 558 115 610 651 26529 4984 175 56
internal_value=8.54164e-06 0.00395581 0.00204847 0.00524748 -0.000899339 -0.00118916 0.000152152 0.009037 0.00168377 0.0116535 0.00995943 0.00753166 0.00458149 0.00797312 -0.00100231 0.00692703 0.00789807 0.00533557 0.00928279 0.00661313 0.0111108 0.00463466 0.0100675 0.00865015 0.00116025 0.00313153 -0.00167573 0.000443103 0.00821346 0.0113704
internal_weight=66366 12410 9023 3015 53956 48513 12914 3387 5443 1512 1122 2231 831 899 9097 1875 1553 712 1400 569 831 455 841 673 5039 1261 35599 6008 404 231
internal_count=66366 12410 9023 3015 53956 48513 12914 3387 5443 1512 1122 2231 831 899 9097 1875 1553 712 1400 569 831 455 841 673 5039 1261 35599 6008 404 231
is_linear=0
shrinkage=0.05


Tree=8
num_leaves=31
num_cat=0
split_feature=1 17 7 0 8 7 4 0 7 7 7 7 4 9 16 10 17 7 7 7 8 8 4 4 7 7 8 7 9 8
split_gain=85.8576 43.5524 17.5561 14.5818 13.5005 11.4548 14.4011 6.71689 5.54975 4.67339 8.4227 2.84601 3.4494 2.65137 2.64721 2.94037 2.62269 2.48133 2.71129 2.66826 2.80195 2.36954 2.36944 2.32224 2.28428 3.50888 2.70338 2.15905 2.12497 2.02376
threshold=6.0000000000000009 0.22060826933923383 14.500000000000002 4.0000000000000009 6.0000000000000009 13.500000000000002 2.0000000000000004 2.0000000000000004 16.500000000000004 10.500000000000002 8.0000000000000018 16.500000000000004 6.0000000000000009 4.0000000000000009 3.7125000000000008 6.0000000000000009 0.22060826933923383 8.0000000000000018 10.500000000000002 14.500000000000002 6.0000000000000009 6.0000000000000009 6.0000000000000009 4.0000000000000009 12.500000000000002 10.500000000000002 6.0000000000000009 16.500000000000004 6.0000000000000009 6.0000000000000009
decision_type=2 8 2 2 2 2 2 2 2 2 2 2 2 2 2 2 10 2 2 2 2 2 2 2 2 2 2 2 2 2
left_child=1 2 23 7 -4 -5 21 -2 9 10 -3 12 -8 -14 15 -12 -11 -9 -19 28 -21 -7 -16 -1 25 26 -25 -23 -20 -10
right_child=3 8 4 5 -6 6 11 17 29 16 14 -13 13 -15 22 -17 -18 18 19 20 -22 27 -24 24 -26 -27 -28 -29 -30 -31
leaf_value=-0.00051485112621713644 0.0078027884853948465 0.0054371293318297327 -0.0010785174617546137 -0.0016649543438576131 0.0054371293318297327 -0.0017843509004709685 0.00010794054974276856 -0.0008618923027902671 0.0056849936266308247 0.0054371293318297327 0.015431401983744675 0.003576726449108272 0.00054593915966424076 0.0053477417419817153 0.0070852864852973393 0.029594481181959776 0.013762811104757617 0.0049295907866553218 -0.0010080981101880226 -0.00062052376745244133 0.0045199539639106416 -0.0014167209223048061 0.016162915118649358 -0.0029510486977440973 0.004059364497661591 -0.002164842018566164 0.002697801198607748 0.00079901035254200314 0.0025854672279594275 0.01360895787645562
leaf_weight=2973 404 361 803 32661 2291 5912 2402 1219 92 1356 248 1937 484 708 175 43 99 564 1415 379 882 2093 122 245 655 735 1563 2316 580 649
leaf_count=2973 404 361 803 32661 2291 5912 2402 1219 92 1356 248 1937 484 708 175 43 99 564 1415 379 882 2093 122 245 655 735 1563 2316 580 649
internal_value=8.11459e-06 0.00375802 0.00203227 -0.000854372 0.0051061 -0.0011297 -2.687e-05 0.00159958 0.00884199 0.00767588 0.0104056 0.00203179 0.00119914 0.00339802 0.014135 0.0175242 0.00589547 0.00110224 0.00172901 0.00117461 0.00297496 -0.0011301 0.0108141 0.000491124 0.00142632 0.000748131 0.00193233 -0.000252821 3.66477e-05 0.0126251
internal_weight=66366 12410 9265 53956 3094 48513 15852 5443 3145 2404 949 5531 3594 1192 588 291 1455 5039 3820 3256 1261 10321 297 6171 3198 2543 1808 4409 1995 741
internal_count=66366 12410 9265 53956 3094 48513 15852 5443 3145 2404 949 5531 3594 1192 588 291 1455 5039 3820 3256 1261 10321 297 6171 3198 2543 1808 4409 1995 741
is_linear=0
shrinkage=0.05


Tree=9
num_leaves=31
num_cat=0
split_feature=1 0 7 8 0 7 4 1 0 7 7 4 1 8 12 0 7 16 21 9 7 7 7 7 4 8 7 12 16 7
split_gain=78.0076 38.9982 15.5533 14.9228 13.1601 10.4824 13.4491 6.44916 6.062 4.47805 5.65686 4.16076 3.77334 3.1611 3.02705 3.66964 2.85513 2.76138 2.58755 2.36309 2.35644 2.2394 2.44694 2.40811 2.604 2.19987 2.13914 2.52021 3.6186 2.12509
threshold=6.0000000000000009 4.0000000000000009 14.500000000000002 6.0000000000000009 4.0000000000000009 14.500000000000002 2.0000000000000004 2.0000000000000004 2.0000000000000004 21.500000000000004 10.500000000000002 2.0000000000000004 2.0000000000000004 6.0000000000000009 4.0000000000000009 2.0000000000000004 12.500000000000002 3.5625000000000004 0.29881222670985336 4.0000000000000009 20.500000000000004 8.0000000000000018 10.500000000000002 14.500000000000002 2.0000000000000004 6.0000000000000009 10.500000000000002 4.0000000000000009 3.7375000000000007 12.500000000000002
decision_type=2 2 2 2 2 2 2 2 2 2 2 2 2 2 2 2 2 2 10 2 2 2 2 2 2 2 2 2 2 2
left_child=1 7 -3 -4 8 25 13 9 -2 10 17 12 -5 -7 20 -16 -17 -1 -13 -12 -9 -10 -23 -24 -25 -6 27 -27 -29 -28
right_child=4 2 3 11 5 6 -8 14 21 -11 19 18 -14 -15 15 16 -18 -19 -20 -21 -22 22 23 24 -26 26 29 28 -30 -31
leaf_value=0.010731523493304848 0.0074126492632497661 0.00039699461389228842 -0.0011359696913206456 0.0087192058251709895 -0.0021880981972586888 -0.0016244345418977232 0.0026380715639429753 0.0071722118523928641 -0.00081879751354920469 0.018159447571618022 0.0065164407477805433 -0.0017011861679917676 0.0016333334586199596 0.00029794975577623027 0.013708239074411065 -0.00024333860486108351 0.0058945130750847367 0.018764803658958544 0.0089976782861216405 0.015053500524825521 0.014765987635954568 0.0046831112698460303 3.4815405768559396e-05 0.00047896399239047627 0.0050256247642219707 -0.0015525100434713654 -0.00226696777029879 0.0099874211154107398 -0.00027744117254651052 -0.0010186419788076253
leaf_weight=240 404 6008 784 287 9070 5660 3817 915 1219 173 816 59 544 3437 87 374 384 193 1341 90 115 564 1995 610 651 6080 7729 87 6533 6100
leaf_count=240 404 6008 784 287 9070 5660 3817 915 1219 173 816 59 544 3437 87 374 384 193 1341 90 115 564 1995 610 651 6080 7729 87 6533 6100
internal_value=1.04597e-05 0.00358483 0.00186756 0.00479796 -0.000811654 -0.00107321 0.000147071 0.00815965 0.0015196 0.0105893 0.0096112 0.00688322 0.00408056 -0.000898125 0.00620041 0.00398237 0.00286607 0.0143122 0.0085468 0.00736449 0.00802006 0.00104713 0.00164256 0.00111588 0.00282621 -0.00151589 -0.00128606 -0.000817549 -0.00014254 -0.00171633
internal_weight=66366 12410 9023 3015 53956 48513 12914 3387 5443 1512 1339 2231 831 9097 1875 845 758 433 1400 906 1030 5039 3820 3256 1261 35599 26529 12700 6620 13829
internal_count=66366 12410 9023 3015 53956 48513 12914 3387 5443 1512 1339 2231 831 9097 1875 845 758 433 1400 906 1030 5039 3820 3256 1261 35599 26529 12700 6620 13829
is_linear=0
shrinkage=0.05


Tree=10
num_leaves=31
num_cat=0
split_feature=1 17 7 0 8 7 4 0 7 7 7 8 17 16 10 4 7 4 16 3 4 8 7 16 7 12 16 7 4 17
split_gain=70.4019 35.2942 14.7831 11.877 11.1005 9.46041 12.1378 5.47095 4.71361 3.9606 7.32858 2.85289 2.2424 2.13672 2.54128 2.08775 2.0792 2.0631 2.09901 2.05 3.04106 1.98538 1.94081 2.05554 1.93058 2.27449 3.26578 1.9179 3.43487 1.9121
threshold=6.0000000000000009 0.22060826933923383 14.500000000000002 4.0000000000000009 6.0000000000000009 14.500000000000002 2.0000000000000004 2.0000000000000004 16.500000000000004 10.500000000000002 8.0000000000000018 6.0000000000000009 0.22060826933923383 3.7125000000000008 6.0000000000000009 4.0000000000000009 13.500000000000002 6.0000000000000009 4.2375000000000016 6.0000000000000009 6.0000000000000009 6.0000000000000009 11.500000000000002 4.4125000000000023 10.500000000000002 4.0000000000000009 3.7375000000000007 12.500000000000002 4.0000000000000009 0.074843089557216649
decision_type=2 8 2 2 2 2 2 2 2 2 2 2 10 2 2 2 2 2 2 2 2 2 2 2 2 2 2 2 2 10
left_child=1 2 15 7 -4 21 11 22 9 10 -3 -7 -11 14 -12 -1 -17 -15 -19 -9 -21 -5 -2 -24 25 -23 -27 -26 -29 -28
right_child=3 8 4 5 -6 6 -8 19 -10 12 13 -13 -14 17 -16 16 -18 18 -20 20 -22 24 23 -25 27 26 29 28 -30 -31
leaf_value=-0.00051599369041954995 0.0030374700149704268 0.0049171449195044431 -0.00098113591456843786 -0.0020786934336103182 0.0049171449195044431 -0.001543212844710468 0.0025061680234818363 -0.0013618059227099785 0.011468782816861485 0.0049171449195044431 0.014009653335256923 0.00028305224508506672 0.012561826460590267 0.0064473181750093192 0.027176517248153689 0.00090428761097493475 0.0049171449195044431 0.0091699122194794647 0.022400975691260035 0.00067127915260830923 0.0037904588438780074 -0.0014748847782979474 0.007372991033962795 0.018378910848072597 -0.0021536193160020391 0.0094880501514878774 -0.0016097984424910689 -0.001848409904752892 0.00063071796712674028 0.00027995611399693915
leaf_weight=2973 173 361 803 9070 2291 5660 3817 780 741 1356 248 3437 99 175 43 2886 312 69 53 3228 1031 6080 175 56 7729 87 1879 3933 2167 4654
leaf_count=2973 173 361 803 9070 2291 5660 3817 780 741 1356 248 3437 99 175 43 2886 312 69 53 3228 1031 6080 175 56 7729 87 1879 3933 2167 4654
internal_value=9.93669e-06 0.00340559 0.00185205 -0.000771071 0.00467269 -0.00101955 0.000139717 0.00144362 0.00798224 0.00690756 0.0094205 -0.000853219 0.00526854 0.0129103 0.0159553 0.000437842 0.00132457 0.00992679 0.0149178 0.00099477 0.00142636 -0.00144009 0.00704202 0.0100411 -0.00122176 -0.000776672 -0.000135413 -0.00163051 -0.00096771 -0.000263569
internal_weight=66366 12410 9265 53956 3094 48513 12914 5443 3145 2404 949 9097 1455 588 291 6171 3198 297 122 5039 4259 35599 404 231 26529 12700 6620 13829 6100 6533
internal_count=66366 12410 9265 53956 3094 48513 12914 5443 3145 2404 949 9097 1455 588 291 6171 3198 297 122 5039 4259 35599 404 231 26529 12700 6620 13829 6100 6533
is_linear=0
shrinkage=0.05


Tree=11
num_leaves=31
num_cat=0
split_feature=1 0 7 4 22 7 1 1 8 17 7 7 7 4 7 12 7 12 22 9 7 7 7 17 12 16 8 4 7 16
split_gain=63.9772 31.5744 13.0582 12.6951 10.9586 7.23405 5.62103 5.38693 5.36347 5.05236 4.26319 4.36573 3.00211 4.27936 2.62019 2.56126 2.47394 2.2346 2.20919 2.1205 2.08351 2.03593 2.30549 1.92882 1.89345 1.87247 2.46951 1.76924 1.66308 1.99724
threshold=6.0000000000000009 4.0000000000000009 14.500000000000002 2.0000000000000004 0.3430763904915764 13.500000000000002 4.0000000000000009 2.0000000000000004 6.0000000000000009 0.22060826933923383 21.500000000000004 10.500000000000002 14.500000000000002 2.0000000000000004 8.0000000000000018 4.0000000000000009 15.500000000000002 2.0000000000000004 0.48706624889705225 4.0000000000000009 12.500000000000002 10.500000000000002 11.500000000000002 0.052758097165991912 4.0000000000000009 4.4375000000000027 6.0000000000000009 2.0000000000000004 18.500000000000004 4.2875000000000023
decision_type=2 2 2 2 8 2 2 2 2 10 2 2 2 2 2 2 2 2 10 2 2 2 2 10 2 2 2 2 2 2
left_child=1 6 23 7 5 24 10 -4 -7 12 11 -1 -6 -14 -8 21 17 -5 20 -13 -17 -16 -23 -3 -2 26 -26 -22 -18 -30
right_child=4 2 3 16 9 8 14 -9 -10 -11 -12 19 13 -15 15 18 28 -19 -20 -21 27 22 -24 -25 25 -27 -28 -29 29 -31
leaf_value=0.012551232413912781 -0.0019923597013586712 -0.0016201111233385746 0.0058551076854762261 0.012073645740747452 -1.1440594116802172e-06 -0.0017599732112759407 0.0013654424432303091 -0.00049035439362354741 -0.00016709904155420363 0.0068284529041160238 0.016922030321189337 0.0058170072127070168 0.00028919027259265915 0.0036838526940095023 0.013160884681056782 -0.00085238247771154756 0.010653309572350098 0.0021863714667433864 0.011858290471136571 0.013782679602023094 -0.0020101416527348406 0.0013202771360815411 0.0084999221508097293 0.00076243472614446681 -0.0014785251714023895 -0.0016799042337780614 -0.00016709904155420363 0.0069087941895742888 0.010560207111252981 0.0034633134331734702
leaf_weight=471 12359 1024 473 72 7136 5288 319 1142 8784 330 175 822 1648 1095 166 220 648 277 80 93 68 142 526 4984 4662 9036 3618 305 176 227
leaf_count=471 12359 1024 473 72 7136 5288 319 1142 8784 330 175 822 1648 1095 166 220 648 277 80 93 68 142 526 4984 4662 9036 3618 305 176 227
internal_value=1.20016e-05 0.00324901 0.00170381 0.0043889 -0.000732517 -0.00107675 0.00736543 0.0013681 -0.000167099 0.000742547 0.00956845 0.00863997 0.000539252 0.00194511 0.00548212 0.00635353 0.0078736 0.00422615 0.00405889 0.00662663 0.00300669 0.00820521 0.00697371 0.000356355 -0.00151961 -0.00118219 -0.00063903 0.00528282 0.00908479 0.0065627
internal_weight=66366 12410 9023 3015 53956 43747 3387 1615 14072 10209 1561 1386 9879 2743 1826 1507 1400 349 673 915 593 834 668 6008 29675 17316 8280 373 1051 403
internal_count=66366 12410 9023 3015 53956 43747 3387 1615 14072 10209 1561 1386 9879 2743 1826 1507 1400 349 673 915 593 834 668 6008 29675 17316 8280 373 1051 403
is_linear=0
shrinkage=0.05


Tree=12
num_leaves=31
num_cat=0
split_feature=1 17 7 0 8 7 4 0 7 7 7 8 12 4 17 4 7 7 8 16 16 16 8 4 16 20 16 0 8 14
split_gain=57.4062 28.5569 12.4544 9.85438 9.46899 8.12823 10.5104 4.52005 4.07808 3.2999 6.15171 2.36691 1.96292 2.20361 1.9082 1.87324 1.91743 3.15377 2.43203 1.85667 1.84166 2.37332 1.82042 1.81496 1.9125 1.80416 3.479 1.74567 1.93863 1.78253
threshold=6.0000000000000009 0.22060826933923383 14.500000000000002 4.0000000000000009 6.0000000000000009 14.500000000000002 2.0000000000000004 2.0000000000000004 16.500000000000004 10.500000000000002 8.0000000000000018 6.0000000000000009 2.0000000000000004 6.0000000000000009 0.22060826933923383 4.0000000000000009 12.500000000000002 10.500000000000002 6.0000000000000009 4.4375000000000027 3.7125000000000008 3.5625000000000004 6.0000000000000009 6.0000000000000009 4.2375000000000016 0.16692502278283264 4.3125000000000027 6.0000000000000009 6.0000000000000009 2.0000000000000004
decision_type=2 8 2 2 2 2 2 2 2 2 2 2 2 2 10 2 2 2 2 2 2 2 2 2 2 10 2 2 2 2
left_child=1 2 15 7 -4 27 11 -2 9 10 -3 -7 -9 -14 -11 19 17 18 -17 -1 21 -12 -10 -22 -25 -8 -27 28 -5 -30
right_child=3 8 4 5 -6 6 25 12 22 14 20 -13 13 -15 -16 16 -18 -19 -20 -21 23 -23 -24 24 -26 26 -28 -29 29 -31
leaf_value=0.00018358556738426216 0.006421026060044176 0.0044462120898221286 -0.00099335844636631496 -0.001835230602034856 0.0044462120898221286 -0.001389204536173032 0.001890800944433611 -0.0021670351604343484 0.0044462120898221286 0.0044462120898221286 0.010499411646598652 0.000274254365181694 0.00062761033297131764 0.003208522418534514 0.011459846373158273 -0.0028994675756109003 0.0036433957278273494 -0.0021519681304490485 0.0024583933487658462 -0.0027556270884815607 0.0056684958381312232 0.019588951558567758 0.01138281827485433 0.0081266693123008896 0.020756233750649222 0.01892307715081587 0.0038435138121508715 -0.002393399439763333 -0.0012495605806908969 -0.00031607181781508791
leaf_weight=2269 404 361 803 8534 2291 5660 3206 466 92 1356 162 3437 3489 1084 99 245 655 735 1563 704 175 129 649 69 53 41 570 3317 16295 7453
leaf_count=2269 404 361 803 8534 2291 5660 3206 466 92 1356 162 3437 3489 1084 99 245 655 735 1563 704 175 129 649 69 53 41 570 3317 16295 7453
internal_value=2.02884e-05 0.00308656 0.00168914 -0.000684961 0.0042781 -0.000911297 0.000163255 0.00133236 0.00720329 0.00620368 0.00849746 -0.000760722 0.000924376 0.0012394 0.0047076 0.000391091 0.00123103 0.000609675 0.00173236 -0.000512414 0.0117018 0.0145288 0.0104463 0.00893201 0.0136133 0.00236535 0.0048554 -0.0013011 -0.00118887 -0.000956597
internal_weight=66366 12410 9265 53956 3094 48513 12914 5443 3145 2404 949 9097 5039 4573 1455 6171 3198 2543 1808 2973 588 291 741 297 122 3817 611 35599 32282 23748
internal_count=66366 12410 9265 53956 3094 48513 12914 5443 3145 2404 949 9097 5039 4573 1455 6171 3198 2543 1808 2973 588 291 741 297 122 3817 611 35599 32282 23748
is_linear=0
shrinkage=0.05


Tree=13
num_leaves=31
num_cat=0
split_feature=1 0 7 4 22 7 1 1 8 17 9 10 7 4 12 0 16 16 8 7 7 9 7 12 16 8 9 4 17 4
split_gain=52.1658 25.5179 11.0902 11.7315 9.00564 6.1678 4.90963 4.89345 4.52449 4.0957 3.42918 4.82055 2.71772 3.66971 2.47299 2.98507 2.52993 2.37276 2.29533 2.25837 4.10737 2.70243 1.84408 1.77307 1.77431 2.09424 1.74723 1.69841 1.61155 1.61001
threshold=6.0000000000000009 4.0000000000000009 15.500000000000002 2.0000000000000004 0.3430763904915764 13.500000000000002 2.0000000000000004 2.0000000000000004 6.0000000000000009 0.22060826933923383 4.0000000000000009 6.0000000000000009 14.500000000000002 2.0000000000000004 4.0000000000000009 2.0000000000000004 4.3125000000000027 3.7625000000000006 6.0000000000000009 10.500000000000002 13.500000000000002 6.0000000000000009 20.500000000000004 4.0000000000000009 4.4375000000000027 6.0000000000000009 6.0000000000000009 4.0000000000000009 0.22060826933923383 6.0000000000000009
decision_type=2 2 2 2 8 2 2 2 2 10 2 2 2 2 2 2 2 2 2 2 2 2 2 2 2 2 2 2 8 2
left_child=1 7 18 6 5 23 -4 10 -7 12 11 -1 -6 -14 22 -16 -17 -13 -3 -20 -21 27 28 -2 25 -25 -12 -22 -9 -30
right_child=4 2 3 -5 9 8 -8 14 -10 -11 26 17 13 -15 15 16 -18 -19 19 20 21 -23 -24 24 -26 -27 -28 -29 29 -31
leaf_value=0.012423863379073512 -0.0018293422151657455 -0.0016060385688007634 0.0058233355845524262 0.0084082388373129032 -1.0734846796673376e-05 -0.0016020126334347858 -0.00047228408091565076 0.00040612907281943736 -0.00013814786724326364 0.0061659790417461684 0.018154819428243422 0.0044792946433227371 0.00028834153708179018 0.0033347038755585515 0.011705618908350495 -0.00083491809176977237 0.0049481335780403235 0.010925419574205796 0.0019937206440250681 -0.0014160402236368622 -0.00095536111028999031 0.0083649889195719414 0.012550871145466101 -0.001311790889767504 -0.0015298407517815519 -0.00013814786724326364 0.0092071907734999105 0.0035548657213292558 0.0048675056896647631 0.009490063233800184
leaf_weight=388 12359 1106 448 1051 7136 5288 1003 119 8784 330 132 721 1648 1095 87 396 362 178 2506 1907 403 166 115 4662 9036 3618 93 433 490 306
leaf_count=388 12359 1106 448 1051 7136 5288 1003 119 8784 330 132 721 1648 1095 87 396 362 178 2506 1907 403 166 115 4662 9036 3618 93 433 490 306
internal_value=2.15766e-05 0.00294455 0.00155543 0.00438538 -0.000650713 -0.000962763 0.0014715 0.00664516 -0.000138148 0.000686467 0.00876155 0.00776593 0.000503429 0.00184104 0.00493851 0.00293371 0.00192691 0.00575561 0.000469626 0.000893575 -5.4161e-05 0.00253776 0.00658322 -0.00137186 -0.00104535 -0.000516618 0.0144565 0.00138068 0.00583319 0.00664452
internal_weight=66366 12410 9023 2502 53956 43747 1451 3387 14072 10209 1512 1287 9879 2743 1875 845 758 899 6521 5415 2909 1002 1030 29675 17316 8280 225 836 915 796
internal_count=66366 12410 9023 2502 53956 43747 1451 3387 14072 10209 1512 1287 9879 2743 1875 845 758 899 6521 5415 2909 1002 1030 29675 17316 8280 225 836 915 796
is_linear=0
shrinkage=0.05


Tree=14
num_leaves=31
num_cat=0
split_feature=1 0 7 4 0 7 4 7 1 0 1 7 8 8 7 7 9 17 4 8 16 4 7 7 7 7 7 7 8 9
split_gain=46.7853 23.0299 10.0089 10.5877 8.18118 6.98577 9.10872 4.48268 4.43094 3.73653 2.92096 4.21681 2.10707 2.07154 2.03818 3.7069 2.43894 2.02565 2.33502 1.96218 1.8395 1.77467 1.84913 1.82769 1.77176 1.76554 2.23535 1.92103 2.08429 1.8962
threshold=6.0000000000000009 4.0000000000000009 15.500000000000002 2.0000000000000004 4.0000000000000009 14.500000000000002 2.0000000000000004 16.500000000000004 2.0000000000000004 2.0000000000000004 4.0000000000000009 10.500000000000002 6.0000000000000009 6.0000000000000009 10.500000000000002 13.500000000000002 6.0000000000000009 0.22060826933923383 6.0000000000000009 6.0000000000000009 4.3125000000000027 4.0000000000000009 17.500000000000004 18.500000000000004 21.500000000000004 8.0000000000000018 10.500000000000002 14.500000000000002 6.0000000000000009 6.0000000000000009
decision_type=2 2 2 2 2 2 2 2 2 2 2 2 2 2 2 2 2 10 2 2 2 2 2 2 2 2 2 2 2 2
left_child=1 7 13 8 9 -6 19 10 -4 -2 11 -1 -9 -3 -15 -16 -17 18 20 -7 -12 22 -8 -23 -14 -11 -27 29 -29 -28
right_child=4 2 3 -5 5 6 21 12 -10 25 17 -13 24 14 15 16 -18 -19 -20 -21 -22 23 -24 -25 -26 26 27 28 -30 -31
leaf_value=0.01082761751966365 0.005857256648711639 -0.0015257365974659946 0.0055321689096412491 0.0079878268648226076 -0.0011750893835977187 -0.0012499301643653809 -0.00012721957183473424 0.0030819784674160889 -0.00044866986609883941 -0.00079711410075646136 -0.00013169762617516742 0.0047103648572182355 0.0085472810985590172 0.0018940345056396625 -0.001345238133710157 0.0013116436711909098 0.0079467394198459319 0.0096330620845158903 0.006090044099755487 0.00026464456535717554 0.0047088025714601238 0.0041467669229865479 0.0029621975985190548 0.00022645626846331374 0.013763749028426886 0.0042944866992163325 -0.0010674978816361815 -0.0006884593840953858 0.0037450984872184918 0.0023271225302897653
leaf_weight=471 404 1106 448 1051 35599 5660 1133 106 1003 1219 535 701 401 2506 1907 836 166 135 454 3437 310 1465 846 373 274 564 1415 379 882 580
leaf_count=471 404 1106 448 1051 35599 5660 1133 106 1003 1219 535 701 401 2506 1907 836 166 135 454 3437 310 1465 846 373 274 564 1415 379 882 580
internal_value=2.91906e-05 0.00279732 0.00147766 0.00416611 -0.000607485 -0.000813713 0.000182464 0.0063129 0.00139793 0.00123061 0.00531711 0.00716875 0.00963562 0.000446145 0.000848896 -5.14528e-05 0.00241087 0.00380378 0.00319796 -0.000677698 0.00164411 0.00223248 0.00119347 0.00335119 0.0106648 0.000859671 0.00138837 0.000884973 0.00241257 -8.05907e-05
internal_weight=66366 12410 9023 2502 53956 48513 12914 3387 1451 5443 2606 1172 781 6521 5415 2909 1002 1434 1299 9097 845 3817 1979 1838 675 5039 3820 3256 1261 1995
internal_count=66366 12410 9023 2502 53956 48513 12914 3387 1451 5443 2606 1172 781 6521 5415 2909 1002 1434 1299 9097 845 3817 1979 1838 675 5039 3820 3256 1261 1995
is_linear=0
shrinkage=0.05


Tree=15
num_leaves=31
num_cat=0
split_feature=1 0 7 4 22 7 1 1 8 7 17 7 7 4 7 12 17 4 3 9 7 7 22 7 12 16 8 16 4 7
split_gain=42.2238 20.7845 9.03306 9.55537 7.52199 5.29933 4.10446 3.99892 3.84963 3.35576 3.30178 2.97774 2.34103 2.76608 2.04912 2.04632 1.97372 1.90518 1.84826 1.77075 1.75991 1.90639 1.73847 1.71503 1.6323 1.66215 1.86536 1.54456 1.50271 1.50093
threshold=6.0000000000000009 4.0000000000000009 15.500000000000002 2.0000000000000004 0.3430763904915764 13.500000000000002 4.0000000000000009 2.0000000000000004 6.0000000000000009 21.500000000000004 0.22060826933923383 10.500000000000002 15.500000000000002 2.0000000000000004 8.0000000000000018 4.0000000000000009 0.052758097165991912 6.0000000000000009 6.0000000000000009 4.0000000000000009 10.500000000000002 11.500000000000002 0.48706624889705225 12.500000000000002 4.0000000000000009 4.3625000000000025 6.0000000000000009 4.4125000000000023 2.0000000000000004 18.500000000000004
decision_type=2 2 2 2 8 2 2 2 2 2 10 2 2 2 2 2 10 2 2 2 2 2 10 2 2 2 2 2 2 2
left_child=1 6 16 7 5 24 9 -4 -7 11 12 -1 17 -14 -8 20 -3 -6 -19 -13 -16 -22 23 -17 -2 26 -26 -12 -25 -5
right_child=4 2 3 29 10 8 14 -9 -10 -11 27 19 13 -15 15 22 -18 18 -20 -21 21 -23 -24 28 25 -27 -28 -29 -30 -31
leaf_value=0.010286236832792339 -0.0016806318145750198 -0.0015189346398121726 0.0052555601653044249 0.0090785305705611361 -0.00010866635270091815 -0.001459857589021359 0.00074740697784483629 -0.00042623651259442272 -0.00010866635270091815 0.014403972476720811 0.0040853842154895664 0.0046533980082783966 0.0004092914851239498 0.0030227205287849737 0.011421176562287721 -0.0013271149095486511 0.00081332186120390809 -0.00010866635270091815 0.0023117064142521384 0.011932557813262426 0.00052782441948501159 0.0070565251102352334 0.010026288931258023 -0.0024820361395969113 -0.0011739256039718436 -0.001370361157303308 -0.00010866635270091815 0.013474091371664635 0.0057377024849907298 0.0051924524066170154
leaf_weight=471 12359 1089 448 648 5392 5288 319 1003 8784 175 278 822 1421 812 166 220 5432 613 1641 93 142 526 80 68 4634 9546 3136 52 305 403
leaf_count=471 12359 1089 448 648 5392 5288 319 1003 8784 175 278 822 1421 812 166 220 5432 613 1641 93 142 526 80 68 4634 9546 3136 52 305 403
internal_value=2.7731e-05 0.00265745 0.00140378 0.0039578 -0.000577111 -0.0008623 0.00599726 0.00132803 -0.000108666 0.00787978 0.000644968 0.00705602 0.000480624 0.00190489 0.00438794 0.00515856 0.000423838 6.46713e-05 0.00137963 0.00539325 0.00681367 0.00566869 0.00310752 0.00217412 -0.00124169 -0.000928403 -0.000385426 0.00556482 0.0042392 0.00758844
internal_weight=66366 12410 9023 2502 53956 43747 3387 1451 14072 1561 10209 1386 9879 2233 1826 1507 6521 7646 2254 915 834 668 673 593 29675 17316 7770 330 373 1051
internal_count=66366 12410 9023 2502 53956 43747 3387 1451 14072 1561 10209 1386 9879 2233 1826 1507 6521 7646 2254 915 834 668 673 593 29675 17316 7770 330 373 1051
is_linear=0
shrinkage=0.05


Tree=16
num_leaves=31
num_cat=0
split_feature=1 17 7 8 0 7 4 0 7 7 7 12 12 7 7 16 8 20 16 4 0 8 4 7 7 3 16 4 7 7
split_gain=37.8968 18.7999 8.7501 7.13748 6.71323 6.0286 7.92605 3.10755 2.9729 2.34913 4.70035 1.72505 2.00482 1.72452 1.67654 1.76378 1.62549 1.6075 3.14163 1.53889 1.52263 1.63942 1.50722 1.6685 2.43367 2.23054 1.62067 1.48807 1.5343 1.60737
threshold=6.0000000000000009 0.22060826933923383 14.500000000000002 6.0000000000000009 4.0000000000000009 14.500000000000002 2.0000000000000004 2.0000000000000004 16.500000000000004 10.500000000000002 8.0000000000000018 2.0000000000000004 4.0000000000000009 28.500000000000004 11.500000000000002 4.4125000000000023 6.0000000000000009 0.16692502278283264 4.3125000000000027 6.0000000000000009 6.0000000000000009 6.0000000000000009 4.0000000000000009 12.500000000000002 10.500000000000002 6.0000000000000009 4.4375000000000027 2.0000000000000004 21.500000000000004 18.500000000000004
decision_type=2 8 2 2 2 2 2 2 2 2 2 2 2 2 2 2 2 10 2 2 2 2 2 2 2 2 2 2 2 2
left_child=1 2 22 -4 7 20 16 14 9 10 -3 -9 13 19 -2 -16 -7 -8 -19 -13 21 -6 26 24 25 -24 -1 -10 29 -29
right_child=4 8 3 -5 5 6 17 11 27 -11 -12 12 -14 -15 15 -17 -18 18 -20 -21 -22 -23 23 -25 -26 -27 -28 28 -30 -31
leaf_value=0.00014254487541973354 0.0016226415387812377 0.0036277704951104997 -0.001088007630439357 0.0036277704951104997 -0.0015518630264824132 -0.0011243744072744577 0.001663191080864935 -0.0021110609221739831 0.0041486307173161895 0.003749032447633055 0.0097728514283591389 0.0011498663337714836 0.00016544608966414305 0.01230156985776765 0.005660507134028844 0.015855461465460914 0.0002541480937651295 0.017829745608132063 0.0034999807904425419 0.0042341387957230683 -0.0020824224188056811 -0.00074387301734956269 -1.5897705573553397e-05 0.0033064798294132908 -0.0019494240168406039 0.0035486235295732818 -0.0026035211017270657 0.01006638673844479 0.012848363433298208 0.0036277704951104997
leaf_weight=2269 173 361 803 2291 8534 5660 3206 466 148 1455 588 1369 2588 42 175 56 3437 41 570 574 3317 23748 1058 655 735 750 704 236 239 118
leaf_count=2269 173 361 803 2291 8534 5660 3206 466 148 1455 588 1369 2588 42 175 56 3437 41 570 574 3317 23748 1058 655 735 750 704 236 239 118
internal_value=3.32421e-05 0.00252458 0.00139074 0.0035608 -0.000539771 -0.000726583 0.000198834 0.00112527 0.0058648 0.00501132 0.00694665 0.000786991 0.00108231 0.0022777 0.00534458 0.00813201 -0.000603545 0.00211113 0.00446155 0.00206102 -0.00106229 -0.000957472 0.000302726 0.00105615 0.000476532 0.00146275 -0.000507718 0.0086337 0.00975308 0.00766332
internal_weight=66366 12410 9265 3094 53956 48513 12914 5443 3145 2404 949 5039 4573 1985 404 231 9097 3817 611 1943 35599 32282 6171 3198 2543 1808 2973 741 593 354
internal_count=66366 12410 9265 3094 53956 48513 12914 5443 3145 2404 949 5039 4573 1985 404 231 9097 3817 611 1943 35599 32282 6171 3198 2543 1808 2973 741 593 354
is_linear=0
shrinkage=0.05


Tree=17
num_leaves=31
num_cat=0
split_feature=1 0 7 4 22 7 1 1 8 9 10 17 7 4 12 0 16 8 7 7 9 16 4 3 12 16 8 9 21 4
split_gain=34.4888 16.7872 7.72989 8.28729 6.15205 4.51737 3.59539 3.56071 3.23954 2.89761 3.53578 2.67302 2.163 2.37129 2.02202 2.49861 2.14521 1.82068 1.77625 3.05712 2.2003 1.70952 1.62087 1.6573 1.53591 1.60028 1.54482 1.53508 1.48919 1.4521
threshold=6.0000000000000009 4.0000000000000009 15.500000000000002 2.0000000000000004 0.3430763904915764 13.500000000000002 2.0000000000000004 2.0000000000000004 6.0000000000000009 4.0000000000000009 6.0000000000000009 0.22060826933923383 15.500000000000002 2.0000000000000004 4.0000000000000009 2.0000000000000004 4.3125000000000027 6.0000000000000009 10.500000000000002 13.500000000000002 6.0000000000000009 3.7625000000000006 6.0000000000000009 6.0000000000000009 4.0000000000000009 4.3625000000000025 6.0000000000000009 6.0000000000000009 0.29881222670985336 4.0000000000000009
decision_type=2 2 2 2 8 2 2 2 2 2 2 10 2 2 2 2 2 2 2 2 2 2 2 2 2 2 2 2 10 2
left_child=1 6 17 7 5 24 9 -4 -7 10 -1 12 22 -14 -8 -16 -17 -3 -19 -20 28 -12 -6 -24 -2 26 -26 -11 -21 -30
right_child=4 2 3 -5 11 8 14 -9 -10 27 21 -13 13 -15 15 16 -18 18 19 20 -22 -23 23 -25 25 -27 -28 -29 29 -31
leaf_value=0.010300162096613462 -0.0015470916763561735 -0.0014712871360520127 0.0049034991401380734 0.0070276251613923648 -8.9138164661461969e-05 -0.0013302844893412719 0.0054363788273728009 -0.00045795736171431469 -8.9138164661461969e-05 0.015927653646830357 0.0035058927385139072 0.0050191100257815742 0.00038729185771975698 0.0027318308109622541 0.010161739827572616 -0.0013279406617235656 0.0039972767727809713 0.0017305975915166919 -0.0012605144583200621 -0.0062855172961477253 0.007408606267747391 0.0089774253411909182 -8.9138164661461969e-05 0.0021642268203439547 -0.0010365032164856671 -0.0012510650125272665 -8.9138164661461969e-05 0.0075408062467011072 -0.00055274505872984195 0.0037854058386078541
leaf_weight=388 12359 1106 448 1051 5392 5288 1030 1003 8784 132 721 330 1421 812 87 396 362 2506 1907 63 166 178 613 1641 4634 9546 3136 93 370 403
leaf_count=388 12359 1106 448 1051 5392 5288 1030 1003 8784 132 721 330 1421 812 87 396 362 2506 1907 63 166 178 613 1641 4634 9546 3136 93 370 403
internal_value=3.3859e-05 0.00241054 0.00128385 0.00364647 -0.000512782 -0.000770698 0.00541205 0.00119741 -8.91382e-05 0.00722615 0.00631095 0.000592422 0.000444552 0.00181359 0.00394917 0.00213636 0.00121524 0.000377347 0.000754925 -8.55817e-05 0.00215054 0.00458924 4.47278e-05 0.00127415 -0.00112131 -0.00081741 -0.000284635 0.0124611 0.00110648 0.00170893
internal_weight=66366 12410 9023 2502 53956 43747 3387 1451 14072 1512 1287 10209 9879 2233 1875 845 758 6521 5415 2909 1002 899 7646 2254 29675 17316 7770 225 836 773
internal_count=66366 12410 9023 2502 53956 43747 3387 1451 14072 1512 1287 10209 9879 2233 1875 845 758 6521 5415 2909 1002 899 7646 2254 29675 17316 7770 225 836 773
is_linear=0
shrinkage=0.05


Tree=18
num_leaves=31
num_cat=0
split_feature=1 17 7 8 7 0 8 4 17 7 7 7 12 7 7 4 7 7 3 16 7 22 7 7 7 7 4 9 22 16
split_gain=30.9425 15.1799 7.47563 5.82782 10.1306 5.26006 5.0328 3.94502 3.05405 2.64389 2.60101 2.14744 1.96182 1.93312 4.09691 1.86452 2.33174 2.03277 1.96706 1.73315 1.72347 1.66153 1.60886 1.60613 1.40876 1.70779 1.91032 1.36442 1.3299 1.32797
threshold=6.0000000000000009 0.22060826933923383 15.500000000000002 6.0000000000000009 14.500000000000002 2.0000000000000004 6.0000000000000009 4.0000000000000009 0.078638378698928826 16.500000000000004 16.500000000000004 12.500000000000002 4.0000000000000009 10.500000000000002 8.0000000000000018 4.0000000000000009 12.500000000000002 10.500000000000002 6.0000000000000009 3.9625000000000008 10.500000000000002 0.2234287186212065 21.500000000000004 8.0000000000000018 10.500000000000002 12.500000000000002 2.0000000000000004 4.0000000000000009 0.15327917574796909 4.4125000000000023
decision_type=2 8 2 2 2 2 2 2 8 2 2 2 2 2 2 2 2 2 2 2 2 8 2 2 2 2 2 2 10 2
left_child=1 2 15 -2 5 11 -4 9 24 -6 13 -5 -13 14 -3 29 17 18 -17 22 23 -9 -11 -10 -7 -26 -27 -23 -18 -1
right_child=3 10 6 4 7 8 -8 21 20 19 -12 12 -14 -15 -16 16 28 -19 -20 -21 -22 27 -24 -25 25 26 -28 -29 -30 -31
leaf_value=0.00014091964778174961 -0.0012965879179688488 0.0032813160144810546 -0.00088885472114406418 0.0030026385595125181 -0.0005921196955854871 -0.00047124267957169685 0.0032813160144810546 -0.00019076889993189134 0.00061493755769774765 0.003177431899876822 0.0078813983984643479 0.018343048487548475 0.0044504771474748852 0.0033480740586916608 0.0089054530967964604 -6.8799809100271851e-05 -0.0042330164714890015 -0.0017987187039487217 0.0032785766338308655 0.0013697977315468191 -0.00016978094546958816 0.0024644390400928289 0.01489341283010112 0.0035874817316107251 -0.0017303967046476449 -0.0018840823315851571 -0.00016978094546958816 0.0052406353762544542 0.0032813160144810546 -0.0021393405749352665
leaf_weight=2377 15523 361 737 216 2240 12137 1823 292 1320 84 741 54 48 1455 588 1058 59 735 750 3741 2773 868 45 693 7256 1951 3812 903 853 873
leaf_count=2377 15523 361 737 216 2240 12137 1823 292 1320 84 741 54 48 1455 588 1058 59 735 750 3741 2773 868 45 693 7256 1951 3812 903 853 873
internal_value=3.88371e-05 0.00229001 0.00127117 -0.000478938 -0.000148691 -0.000570573 0.00328132 0.0014133 -0.00063851 0.000774987 0.00529146 0.00582616 0.0118054 0.00449315 0.00624877 0.000388087 0.00119676 0.000418437 0.00131977 0.00156628 0.000519206 0.00330379 0.0072644 0.00163827 -0.000858768 -0.00122004 -0.000577467 0.00387997 0.00328132 -0.000471593
internal_weight=66366 12410 9265 53956 38433 30260 2560 8173 29942 6110 3145 318 102 2404 949 6705 3455 2543 1808 3870 4786 2063 129 2013 25156 13019 5763 1771 912 3250
internal_count=66366 12410 9265 53956 38433 30260 2560 8173 29942 6110 3145 318 102 2404 949 6705 3455 2543 1808 3870 4786 2063 129 2013 25156 13019 5763 1771 912 3250
is_linear=0
shrinkage=0.05


Tree=19
num_leaves=31
num_cat=0
split_feature=1 0 7 8 7 4 17 1 9 10 17 4 7 12 17 7 16 7 12 0 16 20 16 7 16 12 7 1 9 16
split_gain=28.2455 13.517 6.75069 7.02435 5.32428 8.55132 4.84742 3.15432 2.62662 2.98845 2.41057 2.32607 3.44953 2.43695 2.27839 2.07739 2.19263 2.01066 1.82303 2.2807 1.94318 1.81216 2.03763 2.89015 1.68429 1.56408 1.49666 1.46445 1.65847 1.58369
threshold=6.0000000000000009 4.0000000000000009 16.500000000000004 6.0000000000000009 14.500000000000002 2.0000000000000004 0.22060826933923383 2.0000000000000004 4.0000000000000009 6.0000000000000009 0.22060826933923383 4.0000000000000009 13.500000000000002 2.0000000000000004 0.076800797522876871 18.500000000000004 4.7125000000000021 12.500000000000002 4.0000000000000009 2.0000000000000004 4.3125000000000027 0.16692502278283264 4.1125000000000016 21.500000000000004 4.6625000000000023 4.0000000000000009 24.500000000000004 4.0000000000000009 2.0000000000000004 4.0875000000000012
decision_type=2 2 2 2 2 2 8 2 2 2 10 2 2 2 10 2 2 2 2 2 2 8 2 2 2 2 2 2 2 2
left_child=1 7 11 -4 6 -6 -2 8 9 -1 24 -3 -13 -14 -5 16 -16 -12 -9 -20 -21 -7 23 -23 -8 -19 -11 28 -17 -30
right_child=4 2 3 14 5 21 10 18 -10 26 17 12 13 -15 15 27 -18 25 19 20 -22 22 -24 -25 -26 -27 -28 -29 29 -31
leaf_value=0.0093797951975126866 -0.0009069267705662927 -0.00052257530104230952 -0.00067355361416282164 -0.00044133754125956834 -0.00045637586574939944 0.0015755594926078814 0.0001536587535670651 0.0049264007763376513 0.011567814681265089 0.0035599239974570792 0.0031793767111338994 0.00053385393247381652 0.010641359712641974 0.0030500251108734433 0.0065485126938265156 0.014444606282881328 0.013543749711205883 0.018578894707289611 0.0094604123426579884 -0.0015075315561408949 0.0035607343251451602 0.0045647201410840069 0.0031210296031059627 0.020351305777250334 0.0027329715070399372 0.0051698197632334963 0.011437117434464968 0.0032937707277185314 0.0028562206330305733 0.012348793963996733
leaf_weight=388 36814 3375 661 145 9747 3293 1855 1030 225 834 194 2794 130 566 404 70 155 44 87 396 362 89 1064 43 770 43 65 601 73 49
leaf_count=388 36814 3375 661 145 9747 3293 1855 1030 225 834 194 2794 130 566 404 70 155 44 87 396 362 89 1064 43 770 43 65 601 73 49
internal_value=4.03098e-05 0.00219114 0.00118013 0.00361941 -0.000454386 0.000375257 -0.000751737 0.00488449 0.00658367 0.00571232 0.00121424 0.000413341 0.00131842 0.00446795 0.00551497 0.00615378 0.00848816 0.00561567 0.00351427 0.00179297 0.000912933 0.00218099 0.00384794 0.00970732 0.000743082 0.0119514 0.00412947 0.00450823 0.00830975 0.00478975
internal_weight=66366 12410 9023 2158 53956 14236 39720 3387 1512 1287 2906 6865 3490 696 1497 1352 559 281 1875 845 758 4489 1196 132 2625 87 899 793 192 122
internal_count=66366 12410 9023 2158 53956 14236 39720 3387 1512 1287 2906 6865 3490 696 1497 1352 559 281 1875 845 758 4489 1196 132 2625 87 899 793 192 122
is_linear=0
shrinkage=0.05


Tree=20
num_leaves=31
num_cat=0
split_feature=1 17 7 8 7 0 8 20 7 4 7 9 20 16 7 2 16 20 9 16 7 12 8 7 16 7 7 4 4 7
split_gain=25.4826 12.2421 6.3627 5.08888 8.38018 4.33898 4.11813 2.56672 2.31872 2.23203 3.38255 2.51679 1.97885 1.93138 2.27252 1.95426 1.83347 1.6719 1.65629 2.13167 1.62784 1.58309 1.5768 1.53654 1.59298 1.47849 2.46893 1.43536 1.33282 1.31575
threshold=6.0000000000000009 0.22060826933923383 15.500000000000002 6.0000000000000009 15.500000000000002 2.0000000000000004 6.0000000000000009 0.16692502278283264 16.500000000000004 6.0000000000000009 13.500000000000002 4.0000000000000009 0.21225490196078431 4.1125000000000016 22.500000000000004 6.0000000000000009 4.0375000000000014 0.16395005379347524 4.0000000000000009 3.6375000000000006 25.500000000000004 4.0000000000000009 6.0000000000000009 11.500000000000002 4.4125000000000023 10.500000000000002 13.500000000000002 4.0000000000000009 2.0000000000000004 21.500000000000004
decision_type=2 8 2 2 2 2 2 8 2 2 2 2 8 2 2 2 2 8 2 2 2 2 2 2 2 2 2 2 2 2
left_child=1 2 22 -2 5 23 -4 20 18 16 12 -12 -11 14 -9 -15 21 -13 -3 -20 -6 -7 -1 -5 -25 -24 -27 -28 -10 -30
right_child=3 8 6 4 7 9 -8 13 28 10 11 17 -14 15 -16 -17 -18 -19 19 -21 -22 -23 25 24 -26 26 27 -29 29 -31
leaf_value=-0.0013634074569147613 -0.001196202445168828 0.002970885478360127 -0.0008182513609710511 0.0013432015992096953 0.0012311605154640888 -0.0009796324709623746 0.002970885478360127 0.0048160939415295917 0.0029767647284913712 -0.00050920091751996822 -0.00021237942705051505 0.003176972151032366 0.0016343907836605524 0.0022057066788256463 0.017786165786550401 0.0078863190155636313 -0.00094815005700755344 0.0088828524460173187 0.014041577843683107 0.0049766389648862978 -0.0027255731810262238 0.0015527660029697908 0.0015730054347037994 0.0053470970903124132 0.015595599521811193 -0.0010940765865060523 -0.00021579618937467814 0.002970885478360127 0.006345594318657272 0.011147157704481022
leaf_weight=1120 15523 1452 737 148 4468 1069 1823 120 148 7468 417 454 1258 1111 47 163 19603 179 70 882 276 1460 2571 140 52 1979 466 569 354 239
leaf_count=1120 15523 1452 737 148 4468 1069 1823 120 148 7468 417 454 1258 1111 47 163 19603 179 70 882 276 1460 2571 140 52 1979 466 569 354 239
internal_value=3.77317e-05 0.00208066 0.0011657 -0.000432146 -0.000123546 -0.000446888 0.00297089 0.00156233 0.00477607 -0.000506757 0.00012246 0.00280363 -0.000200166 0.00341045 0.00846635 0.00274771 -0.000784691 0.00479048 0.00402232 0.00564318 0.00100096 0.000482329 0.000348819 0.00517164 0.00812273 0.000692184 -5.91734e-05 0.00191964 0.00722142 0.00828079
internal_weight=66366 12410 9265 53956 38433 32248 2560 6185 3145 31908 9776 1050 8726 1441 167 1274 22132 633 2404 952 4744 2529 6705 340 192 5585 3014 1035 741 593
internal_count=66366 12410 9265 53956 38433 32248 2560 6185 3145 31908 9776 1050 8726 1441 167 1274 22132 633 2404 952 4744 2529 6705 340 192 5585 3014 1035 741 593
is_linear=0
shrinkage=0.05


Tree=21
num_leaves=31
num_cat=0
split_feature=1 0 7 8 8 7 0 4 1 17 7 7 17 17 7 16 7 7 12 7 7 7 12 17 17 20 16 7 22 7
split_gain=23.3161 10.9368 5.79056 5.92151 4.58995 7.56908 3.92765 3.24855 2.83382 2.46311 2.29935 2.22638 2.05068 2.03938 1.88921 1.97885 1.86653 1.64221 1.63334 1.58239 1.55319 1.5224 1.50378 1.46829 1.46474 1.48209 1.70025 1.47807 1.42799 1.46174
threshold=6.0000000000000009 4.0000000000000009 16.500000000000004 6.0000000000000009 6.0000000000000009 14.500000000000002 2.0000000000000004 4.0000000000000009 4.0000000000000009 0.078638378698928826 21.500000000000004 16.500000000000004 0.076800797522876871 0.052758097165991912 18.500000000000004 4.7125000000000021 10.500000000000002 12.500000000000002 4.0000000000000009 9.5000000000000018 10.500000000000002 18.500000000000004 4.0000000000000009 0.067777976968827786 0.048886489165840541 0.16395005379347524 4.0875000000000012 22.500000000000004 0.48706624889705225 12.500000000000002
decision_type=2 2 2 2 2 2 2 2 2 8 2 2 10 10 2 2 2 2 2 2 2 2 2 8 8 8 2 2 10 2
left_child=1 8 13 -4 -2 6 17 11 10 -8 16 -7 -5 -3 15 -14 -1 -6 -19 -10 -11 -9 -21 -23 -13 -26 27 -27 29 -24
right_child=4 2 3 12 5 7 9 21 19 20 -12 24 14 -15 -16 -17 -18 18 -20 22 -22 23 28 -25 25 26 -28 -29 -30 -31
leaf_value=0.0078553268088783178 -0.0011363922840975796 -0.0015681717070066823 -0.00059896358563571765 -0.00056781501605592921 0.0025760244509136238 -0.00060128170647658411 -0.0007388508602020746 0.0036275408328934147 -0.00010272801871070211 0.001564890150696972 0.011380254575184413 -0.0019286270301740666 0.006072543045081715 0.0007558157794508814 0.004119822538891176 0.012718017812698119 0.0039814272400785665 0.016239212342986354 0.0035629491011301678 0.0051821908598629002 -0.00012010043102856079 -0.0044806975555621974 -0.0020757699199020862 0.0021186280174780698 0.0010992877947366988 0.0050146295992006748 0.0025610301069685726 0.016525517634692646 0.0082731316704303028 0.0030630909186106265
leaf_weight=471 15523 1130 661 145 216 2240 25156 1650 322 2013 175 308 404 5735 793 155 915 54 48 831 2773 118 220 295 2723 83 714 42 80 373
leaf_count=471 15523 1130 661 145 216 2240 25156 1650 322 2013 175 308 404 5735 793 155 915 54 48 831 2773 118 220 295 2723 83 714 42 80 373
internal_value=3.87033e-05 0.00199286 0.00108345 0.00334262 -0.000410757 -0.000117674 -0.000482341 0.00123248 0.00441554 -0.000541046 0.00597976 0.000653246 0.00508302 0.00037328 0.00568907 0.00791521 0.00529788 0.00504516 0.0102739 0.00307833 0.00049865 0.002948 0.00375938 0.000233106 0.00137938 0.00166542 0.00350281 0.00888229 0.00200255 0.0011566
internal_weight=66366 12410 9023 2158 53956 38433 30260 8173 3387 29942 1561 6110 1497 6865 1352 559 1386 318 102 1826 4786 2063 1504 413 3870 3562 839 125 673 593
internal_count=66366 12410 9023 2158 53956 38433 30260 8173 3387 29942 1561 6110 1497 6865 1352 559 1386 318 102 1826 4786 2063 1504 413 3870 3562 839 125 673 593
is_linear=0
shrinkage=0.05


Tree=22
num_leaves=31
num_cat=0
split_feature=1 17 7 8 8 7 0 4 22 4 7 9 7 20 16 12 9 16 20 7 17 20 16 16 7 16 4 17 4 0
split_gain=21.0501 9.87876 5.5173 4.23746 4.13764 6.87067 3.54164 2.26105 2.58423 1.97834 2.89119 2.26363 1.96944 1.70278 1.6836 2.86113 1.50969 1.85558 1.49639 1.36085 1.32193 1.33758 1.53448 1.41511 1.30169 1.41666 1.20857 1.19648 1.48183 1.14833
threshold=6.0000000000000009 0.22060826933923383 14.500000000000002 6.0000000000000009 6.0000000000000009 15.500000000000002 2.0000000000000004 4.0000000000000009 0.2234287186212065 6.0000000000000009 13.500000000000002 4.0000000000000009 16.500000000000004 0.21225490196078431 4.387500000000002 4.0000000000000009 4.0000000000000009 3.6375000000000006 0.16395005379347524 16.500000000000004 0.048886489165840541 0.16395005379347524 4.0875000000000012 3.8625000000000007 11.500000000000002 4.4125000000000023 2.0000000000000004 0.22060826933923383 6.0000000000000009 6.0000000000000009
decision_type=2 8 2 2 2 2 2 2 8 2 2 2 2 8 2 2 2 2 8 2 8 8 2 2 2 2 2 10 2 2
left_child=1 2 29 -4 -2 6 24 19 -9 14 13 -12 16 -11 15 -8 -3 -18 -13 -7 -21 -22 23 -23 -6 -26 -14 28 -19 -1
right_child=4 12 3 -5 5 7 9 8 -10 10 11 18 26 -15 -16 -17 17 27 -20 20 21 22 -24 -25 25 -27 -28 -29 -30 -31
leaf_value=0.00046897668115570065 -0.0010795726267997577 0.0026929104121941761 -0.00094494479354633332 0.0026929104121941761 0.0011472406167839025 -0.00082618162310394675 -0.0011481678275206215 -0.0018945427435748984 0.004101249835753845 -0.00045177864302877574 -0.00024834619366007743 0.0029697613503439314 0.0026929104121941761 0.0015366680096888202 -0.0010035884994345299 0.00094474102405615846 0.013005335352250508 0.0026929104121941761 0.0083678428499891766 -0.0018321956604622402 0.0010443233725147304 0.0021859986780336654 0.0024329786754998511 0.012714152038097382 0.0047696903135095326 0.01443436690247976 0.0075776760031360801 0.010588559955358505 0.0069116988625954577 -0.0015647978745073716
leaf_weight=5374 15523 1452 803 2291 148 923 3107 212 1180 7468 417 454 148 1258 15583 3442 70 523 179 308 2723 49 714 76 140 52 593 75 284 797
leaf_count=5374 15523 1452 803 2291 148 923 3107 212 1180 7468 417 454 148 1258 15583 3442 70 523 179 308 2723 49 714 76 140 52 593 75 284 797
internal_value=3.64438e-05 0.00189322 0.00107131 0.00269291 -0.000390618 -0.000112351 -0.000405127 0.00141416 0.0031881 -0.000459216 0.000133163 0.00261196 0.00431451 -0.000165111 -0.000720878 -4.81843e-05 0.00361985 0.00516965 0.00449623 0.000898963 0.00131041 0.00158215 0.00332767 0.00843817 0.00467099 0.00738721 0.00656818 0.00454777 0.00398636 0.00020631
internal_weight=66366 12410 9265 3094 53956 38433 32248 6185 1392 31908 9776 1050 3145 8726 22132 6549 2404 952 633 4793 3870 3562 839 125 340 192 741 882 807 6171
internal_count=66366 12410 9265 3094 53956 38433 32248 6185 1392 31908 9776 1050 3145 8726 22132 6549 2404 952 633 4793 3870 3562 839 125 340 192 741 882 807 6171
is_linear=0
shrinkage=0.05


Tree=23
num_leaves=31
num_cat=0
split_feature=1 0 7 4 7 4 17 1 1 7 4 10 7 21 7 7 16 17 7 17 16 16 22 14 16 7 12 7 7 0
split_gain=19.2056 8.82516 5.01813 5.19873 3.78464 5.92463 3.60358 2.84499 2.55707 2.17451 2.02759 2.66658 2.36929 2.05398 1.98662 1.78717 1.74259 1.71851 1.66459 1.59328 1.54692 1.50523 1.44481 1.46346 1.97178 1.39179 1.34708 1.41575 1.57599 1.33189
threshold=6.0000000000000009 4.0000000000000009 16.500000000000004 2.0000000000000004 14.500000000000002 2.0000000000000004 0.22060826933923383 2.0000000000000004 4.0000000000000009 18.500000000000004 6.0000000000000009 6.0000000000000009 12.500000000000002 0.29881222670985336 21.500000000000004 10.500000000000002 4.2875000000000023 0.052758097165991912 10.500000000000002 0.22060826933923383 4.387500000000002 4.6625000000000023 0.2234287186212065 2.0000000000000004 4.3125000000000027 9.5000000000000018 4.0000000000000009 10.500000000000002 11.500000000000002 6.0000000000000009
decision_type=2 2 2 2 2 2 8 2 2 2 2 2 2 10 2 2 2 10 2 10 2 2 8 2 2 2 2 2 2 2
left_child=1 8 10 7 6 -6 29 -4 14 -5 17 -12 15 -14 18 -13 -11 -3 -1 21 -21 -8 -7 -24 -25 -10 27 -27 -29 -2
right_child=4 2 3 9 5 22 19 -9 25 16 11 12 13 -15 -16 -17 -18 -19 -20 20 -22 -23 23 24 -26 26 -28 28 -30 -31
leaf_value=0.0072538419434852166 -0.00066096995411892316 -0.0024091384958389197 0.0045098289847373962 0.0086796259420497401 -0.0003638511682599034 -0.00067970361413918149 0.00015883583553151449 -0.00044289441557561726 -0.00026693015434542058 0.007295871170406993 -0.0010259099079067634 0.0029141120349453235 -0.003145863915808865 0.0066172506054156255 0.010492341799395425 -0.0014854748090163121 0.00066683306502350636 0.00017045975514206029 0.0035955041883096021 0.0028008257216877407 0.01208776067942381 0.0025774619283227178 0.0015531391869221072 0.011811391040682793 0.0031437043691233666 0.0088796499270968644 0.0016923477848297065 -0.00099189638251989654 0.004944162747819161 -0.0017113207821740709
leaf_weight=471 33497 774 428 428 9747 508 1855 899 322 176 677 637 61 461 175 362 227 3893 915 225 56 770 2864 70 1047 163 673 142 526 3317
leaf_count=471 33497 774 428 428 9747 508 1855 899 322 176 677 637 61 461 175 362 227 3893 915 225 56 770 2864 70 1047 163 673 142 526 3317
internal_value=3.68173e-05 0.00181037 0.000993456 0.00309656 -0.000371104 0.000328372 -0.000621803 0.00115452 0.00398665 0.00619774 0.000332351 0.00158447 0.00274635 0.00547635 0.00547252 0.00131987 0.0035619 -0.000257354 0.00483871 0.00107328 0.0046516 0.000690229 0.0018314 0.00215183 0.00368689 0.00271641 0.00335513 0.00470176 0.00368231 -0.000755608
internal_weight=66366 12410 9023 2158 53956 14236 39720 1327 3387 831 6865 2198 1521 522 1561 999 403 4667 1386 2906 281 2625 4489 3981 1117 1826 1504 831 668 36814
internal_count=66366 12410 9023 2158 53956 14236 39720 1327 3387 831 6865 2198 1521 522 1561 999 403 4667 1386 2906 281 2625 4489 3981 1117 1826 1504 831 668 36814
is_linear=0
shrinkage=0.05


Tree=24
num_leaves=31
num_cat=0
split_feature=1 0 7 4 8 7 0 1 7 7 4 22 4 10 7 21 4 7 9 7 16 16 17 2 1 7 16 17 4 8
split_gain=17.3403 7.96471 4.52886 4.69185 3.61919 5.74888 2.93428 2.5676 2.34747 1.9625 1.91221 2.21054 1.8299 2.40658 2.13829 1.85372 1.78326 2.51096 2.03931 1.61292 1.58287 1.55276 1.55095 1.52077 1.5143 2.18086 1.73809 2.72305 1.6085 1.49774
threshold=6.0000000000000009 4.0000000000000009 16.500000000000004 2.0000000000000004 6.0000000000000009 15.500000000000002 2.0000000000000004 2.0000000000000004 16.500000000000004 18.500000000000004 4.0000000000000009 0.2234287186212065 6.0000000000000009 6.0000000000000009 12.500000000000002 0.29881222670985336 6.0000000000000009 13.500000000000002 4.0000000000000009 10.500000000000002 4.337500000000003 4.0375000000000014 0.052758097165991912 4.0000000000000009 4.0000000000000009 11.500000000000002 3.5875000000000008 0.22060826933923383 6.0000000000000009 6.0000000000000009
decision_type=2 2 2 2 2 2 2 2 2 2 2 8 2 2 2 10 2 2 2 2 2 2 10 2 2 2 2 10 2 2
left_child=1 8 12 7 -2 6 -6 -4 24 -5 -7 -12 22 -14 19 -16 21 -18 -19 -15 -11 23 -3 -8 25 -1 -26 28 -28 -10
right_child=4 2 3 9 5 10 16 -9 29 20 11 -13 13 14 15 -17 17 18 -20 -21 -22 -23 -24 -25 26 -27 27 -29 -30 -31
leaf_value=0.0060599766884242064 -0.0009973298109228377 -0.0022886815199325253 0.0042843376686709502 0.008245644523440121 0.0042598567903041843 0.00082981917069012011 0.00023654687914832011 -0.00042074971953541605 0.00066644059107551039 0.0065722869840836281 -0.0017658306707469922 0.0037795288008400951 -0.00097461440923735175 0.0027684063304163039 -0.0029885707087204108 0.0062863880489627613 -0.00012532939659245869 -0.0002521889172583747 0.0042511675954100461 -0.0014112011102434679 0.00030419074544092505 -0.00080862874659747984 0.00016193671150560281 0.0060500360709630843 -0.0035595070570707322 0.0015976106713807914 0.00049829388018021931 0.010452771753072739 0.0043056341253788861 0.0070594997196285819
leaf_weight=736 15523 774 428 428 340 4793 2411 899 106 198 212 1180 677 637 61 461 8726 417 633 362 205 19603 3893 118 129 436 772 100 433 675
leaf_count=736 15523 774 428 428 340 4793 2411 899 106 198 212 1180 677 637 61 461 8726 417 633 362 205 19603 3893 118 129 436 772 100 433 675
internal_value=3.46242e-05 0.00171985 0.000943784 0.00294173 -0.000352982 -9.27319e-05 -0.000360543 0.00109679 0.00378731 0.00588786 0.00130361 0.00293498 0.000315733 0.00150524 0.00260903 0.00520253 -0.000409776 0.000152639 0.00246269 0.00125387 0.0033838 -0.000658202 -0.000244487 0.000507797 0.0030667 0.00439992 0.00197707 0.00252437 0.00186641 0.00619181
internal_weight=66366 12410 9023 2158 53956 38433 32248 1327 3387 831 6185 1392 6865 2198 1521 522 31908 9776 1050 999 403 22132 4667 2529 2606 1172 1434 1305 1205 781
internal_count=66366 12410 9023 2158 53956 38433 32248 1327 3387 831 6185 1392 6865 2198 1521 522 31908 9776 1050 999 403 22132 4667 2529 2606 1172 1434 1305 1205 781
is_linear=0
shrinkage=0.05


Tree=25
num_leaves=31
num_cat=0
split_feature=1 8 7 4 0 7 7 16 22 1 7 12 7 4 7 7 8 7 7 2 7 10 16 7 7 4 16 17 17 2
split_gain=15.7068 7.0523 11.3387 5.70747 5.19754 3.96258 3.42491 3.01357 3.01018 2.93736 2.64122 3.00663 2.44254 5.2404 2.37085 3.95694 3.20499 1.6806 1.64327 1.64275 1.6121 1.46424 1.43396 1.50304 1.42535 1.42346 1.66161 1.40593 1.34557 1.64981
threshold=2.0000000000000004 6.0000000000000009 14.500000000000002 4.0000000000000009 2.0000000000000004 18.500000000000004 10.500000000000002 4.3625000000000025 1.2394052339413166 6.0000000000000009 9.5000000000000018 4.0000000000000009 12.500000000000002 4.0000000000000009 17.500000000000004 11.500000000000002 6.0000000000000009 11.500000000000002 19.500000000000004 4.0000000000000009 17.500000000000004 4.0000000000000009 3.4875000000000007 10.500000000000002 25.500000000000004 4.0000000000000009 4.3625000000000025 0.048886489165840541 0.048886489165840541 6.0000000000000009
decision_type=2 2 2 2 2 2 2 2 8 2 2 2 2 2 2 2 2 2 2 2 2 2 2 2 2 2 2 8 8 2
left_child=14 -2 4 7 17 9 8 18 -6 -5 -10 25 -8 -14 15 22 -16 -3 19 -4 -9 -20 -1 -24 27 -12 -27 -22 -15 -30
right_child=1 2 3 5 6 -7 12 20 10 -11 11 -13 13 28 16 -17 -18 -19 21 -21 24 -23 23 -25 -26 26 -28 -29 29 -31
leaf_value=0.0012791022897586911 -0.00098662684607394397 0.0017068822754128855 0.00013336526363210292 0.0067369397047037137 1.3516358490112984e-05 -0.00030852531896195779 -0.0012722975993085305 -0.00048131589191853182 0.0011953070320683879 0.0030975655782403372 0.0043962166306391283 0.0011953070320683879 -0.0011130964227768171 -0.0013341654697811701 0.00070408074625173418 0.00030373367249754305 0.0080896243107722622 0.0079129631532643876 0.0013916514001618653 0.0050010074434322042 -0.0022162598896053342 0.0059495353050729788 0.0075432584762455679 0.0032154994208859395 -0.0020131289682561353 0.0047452056248273172 0.013740915384595143 0.0019390797787355919 0.0010252203392254846 0.0036417220893781633
leaf_weight=218 17281 196 713 835 15422 568 10391 2912 757 1650 201 302 5024 369 199 846 561 246 266 229 223 522 507 332 310 84 132 2335 1839 896
leaf_count=218 17281 196 713 835 15422 568 10391 2912 757 1650 201 302 5024 369 199 846 561 246 266 229 223 522 507 332 310 84 132 2335 1839 896
internal_value=3.2893e-05 -0.000124377 0.000196603 0.00163638 -0.000227513 0.00345925 -0.000294761 0.000895342 0.00021997 0.00432045 0.0023771 0.00466672 -0.000764436 -0.000115175 0.00379503 0.00285222 0.00615578 0.00516095 0.0027261 0.00131669 0.000347381 0.00441096 0.00489198 0.00583072 0.00118879 0.00742455 0.0102426 0.00157683 0.00150002 0.0018824
internal_weight=66366 63703 46422 10563 35859 3053 35417 7510 16898 2485 1476 719 18519 8128 2663 1903 760 442 1730 942 5780 788 1057 839 2868 417 216 2558 3104 2735
internal_count=66366 63703 46422 10563 35859 3053 35417 7510 16898 2485 1476 719 18519 8128 2663 1903 760 442 1730 942 5780 788 1057 839 2868 417 216 2558 3104 2735
is_linear=0
shrinkage=0.05


Tree=26
num_leaves=31
num_cat=0
split_feature=1 22 7 22 7 7 8 4 7 7 8 12 16 16 8 7 2 7 16 7 20 8 4 4 16 7 7 16 16 7
split_gain=14.3424 6.66384 3.4072 3.19418 2.16458 2.07678 1.82001 1.67689 1.84668 1.65167 1.59738 1.44087 1.40942 1.40725 1.38454 1.24896 1.28561 1.22927 1.16445 1.84472 1.33577 1.12927 1.11761 1.06504 1.01527 1.08697 0.940687 1.14184 0.98281 0.968874
threshold=6.0000000000000009 0.3430763904915764 16.500000000000004 0.3430763904915764 13.500000000000002 16.500000000000004 6.0000000000000009 4.0000000000000009 12.500000000000002 10.500000000000002 6.0000000000000009 4.0000000000000009 4.4375000000000027 3.9625000000000008 6.0000000000000009 21.500000000000004 6.0000000000000009 9.5000000000000018 5.1875000000000027 12.500000000000002 0.14350841944125528 6.0000000000000009 4.0000000000000009 6.0000000000000009 4.9375000000000027 9.5000000000000018 21.500000000000004 4.262500000000002 4.4625000000000021 25.500000000000004
decision_type=2 8 2 8 2 2 2 2 2 2 2 2 2 2 2 2 2 2 2 2 8 2 2 2 2 2 2 2 2 2
left_child=1 2 7 4 11 22 -4 17 9 14 -6 -2 -13 -10 -9 16 -5 -1 19 23 -21 -7 -3 -18 25 -25 27 -23 -29 -28
right_child=3 5 6 15 10 21 -8 8 13 -11 -12 12 -14 -15 -16 -17 18 -19 -20 20 -22 26 -24 24 -26 -27 29 28 -30 -31
leaf_value=0.00056250862757728992 -0.0011624697520931048 0.0021703800232227245 -0.00058662817895052297 -1.6645657259808544e-05 -0.00088627000135734532 0.0021703800232227245 0.0021703800232227245 -0.002423763335431265 -0.0049873050164293362 -0.0017468154866825088 -1.6645657259808544e-05 -1.6645657259808544e-05 -0.0008880806988292349 0.0021703800232227245 0.0016541323004279484 0.0022978720450124077 -1.6645657259808544e-05 -0.0013510489304150856 -1.6645657259808544e-05 -1.6645657259808544e-05 0.005715744139380613 0.0034077885787229278 0.004195132308599094 0.00082017836084059619 -1.6645657259808544e-05 0.00720215697317969 0.010331504403851754 0.013990377209016256 0.0041268544190603751 0.0029993536571661632
leaf_weight=1528 12359 1630 662 7077 5288 105 1502 241 81 717 8784 8280 9036 965 1527 860 747 1862 540 93 424 296 920 109 187 172 215 56 46 57
leaf_count=1528 12359 1630 662 7077 5288 105 1502 241 81 717 8784 8280 9036 965 1527 860 747 1862 540 93 424 296 920 109 187 172 215 56 46 57
internal_value=3.06055e-05 0.00156325 0.000862313 -0.000321906 -0.00050775 0.00347845 0.00217038 0.000305768 0.00106835 0.000277371 -1.66457e-05 -0.000750069 -0.000455726 0.00217038 0.00109827 0.000474459 0.000306726 -0.000488537 0.00134163 0.00200842 0.00450994 0.00574512 0.00278956 0.000943989 0.00282678 0.00472659 0.00652871 0.0049799 0.00954212 0.00879499
internal_weight=66366 12410 9085 53956 43747 3325 2164 6921 3531 2485 14072 29675 17316 1046 1768 10209 9349 3390 2272 1732 517 775 2550 1215 468 281 670 398 102 272
internal_count=66366 12410 9085 53956 43747 3325 2164 6921 3531 2485 14072 29675 17316 1046 1768 10209 9349 3390 2272 1732 517 775 2550 1215 468 281 670 398 102 272
is_linear=0
shrinkage=0.05


Tree=27
num_leaves=31
num_cat=0
split_feature=1 8 7 4 0 22 4 7 1 16 9 22 12 7 7 8 21 7 16 7 12 16 7 7 17 10 16 7 7 7
split_gain=13.4226 6.1507 9.71287 5.03267 4.61999 3.55823 2.89599 3.80118 2.74374 2.30232 2.11653 2.95622 2.10686 2.02344 3.48419 2.72059 2.00676 1.79263 1.63993 1.5977 1.50287 1.49564 1.37977 2.48687 1.35362 1.51509 1.25459 1.33617 1.23586 1.91488
threshold=2.0000000000000004 6.0000000000000009 15.500000000000002 2.0000000000000004 2.0000000000000004 0.2234287186212065 6.0000000000000009 13.500000000000002 6.0000000000000009 4.4375000000000027 4.0000000000000009 1.2394052339413166 4.0000000000000009 17.500000000000004 11.500000000000002 6.0000000000000009 0.33968927594730408 18.500000000000004 4.1125000000000016 21.500000000000004 2.0000000000000004 4.337500000000003 10.500000000000002 9.5000000000000018 0.052758097165991912 6.0000000000000009 3.4875000000000007 10.500000000000002 11.500000000000002 13.500000000000002
decision_type=2 2 2 2 2 8 2 2 2 2 2 8 2 2 2 2 8 2 2 2 2 2 2 2 10 2 2 2 2 2
left_child=13 -2 4 -4 20 -5 9 10 17 12 -8 -12 -6 14 26 -15 -9 -7 19 -10 -3 -19 23 -13 -14 -26 -1 -28 -22 -30
right_child=1 2 3 5 6 8 7 16 18 -11 11 22 24 15 -16 -17 -18 21 -20 -21 28 -23 -24 -25 25 -27 27 -29 29 -31
leaf_value=0.0011767656260400737 -0.0009153693749070148 -0.0022261835634708404 0.00032961111527573107 -0.0015226721348708841 -0.00064545728935481018 0.0067174706406948814 -0.00077007245447991812 0.0021866913432521478 0.004077824025209678 -0.00086784921132885499 0.00032655700047167473 0.0021311421597064949 -0.00082368674419947344 0.00067119213878808913 0.00025069297932035534 0.0074757539652248114 0.0080665318840524042 0.0053785640070147245 0.0021226604473633059 0.014818641315309369 0.0024855677964109365 0.00088625912524443811 0.0021311421597064949 0.010312985709735326 0.00093050629495753398 0.0043442004514174636 0.0070488798070177288 0.0029684249861502508 0.011257811068940016 0.0020711640345639193
leaf_weight=218 17281 67 3469 422 4776 778 4137 1260 118 16137 5790 172 997 199 846 561 164 303 2683 49 165 241 282 175 3630 357 507 332 163 87
leaf_count=218 17281 67 3469 422 4776 778 4137 1260 118 16137 5790 172 997 199 846 561 164 303 2683 49 165 241 282 175 3630 357 507 332 163 87
internal_value=3.52644e-05 -0.000110121 0.00018964 0.00176713 -0.000141946 0.00285263 -0.000203847 0.000438956 0.00329519 -0.000501208 0.000111837 0.000680221 0.00010499 0.0035131 0.0026421 0.00569403 0.00286386 0.00517787 0.00242189 0.00722932 0.00472236 0.00297601 0.00393573 0.00611156 0.000824118 0.00123617 0.00455613 0.00543421 0.00584418 0.00806086
internal_weight=66366 63703 46422 8063 38359 4594 37877 11980 4172 25897 10556 6419 9760 2663 1903 760 1424 1322 2850 167 482 544 629 347 4984 3987 1057 839 415 250
internal_count=66366 63703 46422 8063 38359 4594 37877 11980 4172 25897 10556 6419 9760 2663 1903 760 1424 1322 2850 167 482 544 629 347 4984 3987 1057 839 415 250
is_linear=0
shrinkage=0.05


Tree=28
num_leaves=31
num_cat=0
split_feature=1 8 7 4 0 7 7 16 22 7 12 1 7 4 7 7 8 12 20 7 7 7 2 7 7 10 7 20 17 2
split_gain=12.1167 5.54508 8.82685 4.76132 4.09126 3.46783 2.9415 2.38067 2.33409 2.24099 2.60486 2.23993 2.04484 4.39346 1.82616 3.14448 2.45533 1.39448 1.37971 1.40075 1.8562 1.33005 1.42114 1.32738 1.53088 1.27634 1.267 1.22185 1.20043 1.41123
threshold=2.0000000000000004 6.0000000000000009 14.500000000000002 4.0000000000000009 2.0000000000000004 18.500000000000004 10.500000000000002 4.3625000000000025 1.2394052339413166 9.5000000000000018 4.0000000000000009 6.0000000000000009 12.500000000000002 4.0000000000000009 17.500000000000004 11.500000000000002 6.0000000000000009 2.0000000000000004 0.42194565392677158 25.500000000000004 17.500000000000004 19.500000000000004 4.0000000000000009 11.500000000000002 13.500000000000002 4.0000000000000009 17.500000000000004 0.082159788228920075 0.048886489165840541 6.0000000000000009
decision_type=2 2 2 2 2 2 2 2 8 2 2 2 2 2 2 2 2 2 10 2 2 2 2 2 2 2 2 8 8 2
left_child=14 -2 4 7 17 11 8 21 -6 -10 -11 26 -8 -14 15 -1 -16 -3 19 20 -9 22 -4 -19 -25 -23 -5 -22 -15 -30
right_child=1 2 3 5 6 -7 12 18 9 10 -12 -13 13 28 16 -17 -18 23 -20 -21 27 25 -24 24 -26 -27 -28 -29 29 -31
leaf_value=0.0043283275607885223 -0.0008696009560438206 -0.0023022140184092146 3.167659535397988e-05 0.0050423099042241834 4.0960254688977794e-05 -0.00040985830784053868 -0.0011542166518439126 -0.00047279753610155796 0.0010816062036302036 0.0068161516550847958 0.0010816062036302036 0.0028526221057682327 -0.0010092089351586952 -0.0012935300173394402 0.00063763269078192402 0.00023815846841245114 0.0071019662892754703 0.0023612892943801304 0.0082408382039931092 -0.0031031794081263198 -0.0028629243912749319 0.0010971638717149435 0.0045591034515716109 0.010694920363053223 0.00076906641616540801 0.005352556542761025 0.0098686683596226205 0.0016640809828323241 0.00095183141975217441 0.0033717626281681342
leaf_weight=1057 17281 63 713 664 15422 568 10391 2883 757 417 302 1650 5024 369 199 846 561 165 54 302 159 266 229 163 51 522 171 2382 1839 896
leaf_count=1057 17281 63 713 664 15422 568 10391 2883 757 417 302 1650 5024 369 199 846 561 165 54 302 159 266 229 163 51 522 171 2382 1839 896
internal_value=3.31086e-05 -0.000105024 0.000179597 0.00144993 -0.000194605 0.00311486 -0.000254268 0.00077309 0.000222756 0.00212225 0.00424628 0.00392051 -0.000689536 -9.54799e-05 0.00333745 0.00251 0.00540933 0.00458613 0.000286056 0.000211037 0.000395568 0.00240029 0.00113229 0.00573115 0.00832941 0.00391609 0.0060307 0.00138081 0.00138344 0.00174461
internal_weight=66366 63703 46422 10563 35859 3053 35417 7510 16898 1476 719 2485 18519 8128 2663 1903 760 442 5780 5726 5424 1730 942 379 214 788 835 2541 3104 2735
internal_count=66366 63703 46422 10563 35859 3053 35417 7510 16898 1476 719 2485 18519 8128 2663 1903 760 442 5780 5726 5424 1730 942 379 214 788 835 2541 3104 2735
is_linear=0
shrinkage=0.05


Tree=29
num_leaves=31
num_cat=0
split_feature=1 8 7 20 7 4 2 4 7 17 16 7 16 7 20 16 7 4 7 12 21 16 8 14 17 7 7 7 17 22
split_gain=10.9706 5.13934 6.34776 3.23977 2.60465 3.26291 2.28287 2.16329 3.36985 2.16233 1.81119 1.65324 1.64733 2.50623 1.65735 1.54228 1.53432 1.37778 1.35311 1.33811 1.98016 1.81987 1.77238 1.30677 1.27559 1.22233 1.20682 1.09685 1.04415 1.02981
threshold=6.0000000000000009 6.0000000000000009 16.500000000000004 1.558112762871646 16.500000000000004 2.0000000000000004 6.0000000000000009 6.0000000000000009 13.500000000000002 0.071850280866674318 4.1125000000000016 10.500000000000002 4.762500000000002 12.500000000000002 0.16395005379347524 4.887500000000002 8.0000000000000018 6.0000000000000009 25.500000000000004 4.0000000000000009 0.39351680163551644 4.5625000000000027 6.0000000000000009 4.0000000000000009 0.048886489165840541 8.0000000000000018 32.500000000000007 9.5000000000000018 0.10805073063137581 0.49596821970653754
decision_type=2 2 2 8 2 2 2 2 2 8 2 2 2 2 10 2 2 2 2 2 8 2 2 2 8 2 2 2 10 10
left_child=1 -1 3 17 6 28 19 12 15 -4 -7 16 13 -8 -15 27 -5 25 -11 20 -2 22 -21 -24 -12 -3 -20 -9 -6 -25
right_child=4 2 9 11 5 10 7 8 -10 18 24 -13 -14 14 -16 -17 -18 -19 26 21 -22 -23 23 29 -26 -27 -28 -29 -30 -31
leaf_value=-0.00091281182909896486 -0.0011540521602473755 0.0013239481307770291 -0.0014834565437072285 0.0016695987987933093 -0.00010237333785800387 0.0072762001044810957 0.00048897968414593062 0.00059073698344348953 0.0053325948481187388 0.0051249099974178258 -0.0022915320839364448 0.0017125087275131588 -0.00072317295376568124 0.0040626212055313183 0.01588210033045875 -1.8324093455989141e-06 0.0059451025787551522 0.0015732186637256375 0.0015898807355125572 -0.00059316257777931045 0.0010018773023071272 -0.00088485280702887265 0.00043567906568012178 0.00061418067737920403 0.0020809677235024775 -0.00062749152349281983 0.0092553717910118828 0.004998373384496161 0.0065200051851570604 0.0062135413816819599
leaf_weight=2055 13269 1168 154 301 7468 157 606 262 461 1796 182 1414 3979 87 45 1913 590 2146 169 5939 1158 9464 6272 151 1997 2564 53 306 60 180
leaf_count=2055 13269 1168 154 301 7468 157 606 262 461 1796 182 1414 3979 87 45 1913 590 2146 169 5939 1158 9464 6272 151 1997 2564 53 306 60 180
internal_value=3.08088e-05 0.00137125 0.00182453 0.00118674 -0.000277495 0.000456982 -0.000441807 0.000342872 0.0014069 0.0042274 0.00208947 0.00277547 -0.000320763 0.00184887 0.00809199 0.000677457 0.00446236 0.000563731 0.00466322 -0.000606764 -0.000981004 -0.000361414 3.35644e-05 0.000597268 0.00171576 -1.67516e-05 0.00158988 0.00296527 -4.95914e-05 0.00365915
internal_weight=66366 12410 10355 8183 53956 9864 44092 7659 2942 2172 2336 2305 4717 738 132 2481 891 5878 2018 36433 14427 22006 12542 6603 2179 3732 222 568 7528 331
internal_count=66366 12410 10355 8183 53956 9864 44092 7659 2942 2172 2336 2305 4717 738 132 2481 891 5878 2018 36433 14427 22006 12542 6603 2179 3732 222 568 7528 331
is_linear=0
shrinkage=0.05


Tree=30
num_leaves=31
num_cat=0
split_feature=1 8 7 4 0 7 7 16 1 22 7 12 7 4 0 9 2 16 7 7 10 12 20 7 7 7 7 10 20 7
split_gain=10.1722 4.64987 7.37976 4.13434 3.52937 3.19752 2.56103 1.93958 1.92365 1.84023 1.94495 2.30761 1.82967 3.86279 1.57421 2.02855 1.63461 1.47923 1.4601 1.35646 2.16916 1.24914 1.20927 1.27977 1.56335 1.16176 1.39267 1.14638 1.70358 1.47747
threshold=2.0000000000000004 6.0000000000000009 14.500000000000002 4.0000000000000009 2.0000000000000004 18.500000000000004 10.500000000000002 4.3625000000000025 6.0000000000000009 1.2394052339413166 9.5000000000000018 4.0000000000000009 12.500000000000002 4.0000000000000009 4.0000000000000009 4.0000000000000009 4.0000000000000009 3.5125000000000006 10.500000000000002 24.500000000000004 6.0000000000000009 2.0000000000000004 0.42194565392677158 25.500000000000004 17.500000000000004 11.500000000000002 13.500000000000002 6.0000000000000009 0.1594289450741064 19.500000000000004
decision_type=2 2 2 2 2 2 2 2 2 8 2 2 2 2 2 2 2 2 2 2 2 2 10 2 2 2 2 2 8 2
left_child=14 -2 4 7 21 8 9 27 -5 -6 -11 -12 -8 -14 15 16 -1 -18 -19 -16 -21 -3 23 24 -9 -23 -27 29 -29 -4
right_child=1 2 3 5 6 -7 12 22 -10 10 11 -13 13 -15 19 -17 17 18 -20 20 -22 25 -24 -25 -26 26 -28 28 -30 -31
leaf_value=0.0078431482229913991 -0.00079788347719887481 -0.0022584329876634813 -0.00013081314456131723 0.0056050435145814977 4.9009892160505064e-05 -0.00050867581477677317 -0.0010803702449154124 -0.0004366430869707828 0.0026598690985278652 0.00097302730563703609 0.0063131700629453294 0.00097302730563703609 -0.0009356564145526332 0.0013078471189652829 0.00081700900304040695 0.0084972051050927911 -0.0061343423212352009 0.0064841428386511182 0.0020338566594086454 0.013573617167901576 0.0022856593398111209 0.0021921440597736474 0.0077013885326407579 -0.0029839704590325328 0.0012644686765121409 0.010031749952607361 0.00056452365482554724 -0.0033872311796855044 0.006293104533170989 0.0031309927957700497
leaf_weight=175 17281 63 684 835 15422 568 10391 2883 1650 757 417 302 5024 3104 926 225 46 237 829 57 168 165 54 302 2541 163 51 54 287 705
leaf_count=175 17281 63 684 835 15422 568 10391 2883 1650 757 417 302 5024 3104 926 225 46 237 829 57 168 165 54 302 2541 163 51 54 287 705
internal_value=2.88258e-05 -9.77385e-05 0.000162897 0.00132444 -0.000179259 0.00287588 -0.000234674 0.000693738 0.0036495 0.000210431 0.00189704 0.00389115 -0.000640818 -7.88854e-05 0.00305644 0.0041171 0.00335134 0.00264445 0.00302327 0.00166311 0.00514528 0.00426106 0.000254133 0.0001839 0.000360283 0.00534477 0.00777554 0.00216248 0.00476015 0.00152475
internal_weight=66366 63703 46422 10563 35859 3053 35417 7510 2485 16898 1476 719 18519 8128 2663 1512 1287 1112 1066 1151 225 442 5780 5726 5424 379 214 1730 341 1389
internal_count=66366 63703 46422 10563 35859 3053 35417 7510 2485 16898 1476 719 18519 8128 2663 1512 1287 1112 1066 1151 225 442 5780 5726 5424 379 214 1730 341 1389
is_linear=0
shrinkage=0.05


Tree=31
num_leaves=31
num_cat=0
split_feature=1 8 7 4 0 22 4 7 17 1 9 22 21 7 7 8 7 16 12 12 16 7 12 16 16 7 7 16 7 7
split_gain=9.1846 4.18797 6.72935 3.78048 3.23486 2.93837 2.16882 2.71093 2.0555 1.85505 1.8384 2.21269 1.76132 1.5013 2.6252 1.98483 1.4785 1.43968 1.82775 1.31344 1.31245 1.3626 1.09905 1.07954 1.96342 1.07045 1.9582 1.05372 1.04754 1.24946
threshold=2.0000000000000004 6.0000000000000009 15.500000000000002 2.0000000000000004 2.0000000000000004 0.2234287186212065 6.0000000000000009 13.500000000000002 0.055719468098889328 6.0000000000000009 4.0000000000000009 1.2394052339413166 0.33968927594730408 17.500000000000004 11.500000000000002 6.0000000000000009 18.500000000000004 4.4375000000000027 4.0000000000000009 4.0000000000000009 4.1125000000000016 21.500000000000004 2.0000000000000004 3.6125000000000007 3.6375000000000006 10.500000000000002 9.5000000000000018 4.0375000000000014 20.500000000000004 24.500000000000004
decision_type=2 2 2 2 2 8 2 2 8 2 2 8 8 2 2 2 2 2 2 2 2 2 2 2 2 2 2 2 2 2
left_child=13 -2 4 -4 22 -5 8 10 -6 16 -8 -12 -9 14 23 -15 -7 18 -10 28 21 -11 -3 -1 -25 26 -13 -17 -18 -30
right_child=1 2 3 5 6 9 7 12 17 20 11 25 -14 15 -16 27 19 -19 -20 -21 -22 -23 -24 24 -26 -27 -28 -29 29 -31
leaf_value=0.0024389593289701711 -0.00075798928073680309 -0.0019939806812734745 0.0002209526376890566 -0.0015682956018436577 -0.001584388507702345 0.0057561042606064476 -0.0007158735814732373 0.0017957261639336747 -0.00048427041628327768 0.0034820962981399841 0.00032979995433710812 0.0018910392627628264 0.0073042752448378547 0.00049197240802810417 7.7571647668843015e-05 0.0054462407821232513 0.00062077705548414439 -0.00058503665958504439 0.00094105147349246977 0.00062077705548414439 0.0018240838412624486 0.013401211935038472 0.0049074727476361296 0.010937696850792629 0.0035996645389142056 0.0018910392627628264 0.0091040439073528569 0.011778184016676326 0.0089170262794340815 0.00062077705548414439
leaf_weight=607 17281 67 3469 422 3363 778 4137 1260 4482 118 5790 172 164 199 846 485 85 13537 4515 258 2683 49 415 127 323 282 175 76 155 46
leaf_count=607 17281 67 3469 422 3363 778 4137 1260 4482 118 5790 172 164 199 846 485 85 13537 4515 258 2683 49 415 127 323 282 175 76 155 46
internal_value=2.67344e-05 -9.35289e-05 0.000153822 0.00146687 -0.000122178 0.00240768 -0.000173974 0.000382302 -0.000431308 0.00280985 0.000106049 0.000635773 0.00243014 0.00290361 0.00215336 0.0047822 0.00435789 -0.000259221 0.000231004 0.00235824 0.00209178 0.0063925 0.00394814 0.00381478 0.00567062 0.00345228 0.00537393 0.00630404 0.00477085 0.0067474
internal_weight=66366 63703 46422 8063 38359 4594 37877 11980 25897 4172 10556 6419 1424 2663 1903 760 1322 22534 8997 544 2850 167 482 1057 450 629 347 561 286 201
internal_count=66366 63703 46422 8063 38359 4594 37877 11980 25897 4172 10556 6419 1424 2663 1903 760 1322 22534 8997 544 2850 167 482 1057 450 629 347 561 286 201
is_linear=0
shrinkage=0.05


Tree=32
num_leaves=31
num_cat=0
split_feature=1 7 4 0 1 17 0 2 4 16 7 15 0 16 16 7 7 7 20 7 7 7 16 8 12 7 7 16 9 16
split_gain=8.29194 3.83896 7.29591 2.95046 2.58497 2.22659 2.03179 1.85011 1.61483 1.89175 1.81186 1.5675 1.4171 1.94156 1.37915 1.30425 1.27105 2.46329 1.26845 1.17925 2.06018 1.15427 1.12293 1.80206 1.25224 1.10763 1.05638 1.57881 1.03042 1.0203
threshold=2.0000000000000004 14.500000000000002 2.0000000000000004 2.0000000000000004 6.0000000000000009 0.10805073063137581 6.0000000000000009 6.0000000000000009 6.0000000000000009 4.887500000000002 12.500000000000002 2.0000000000000004 4.0000000000000009 4.1125000000000016 3.287500000000001 18.500000000000004 9.5000000000000018 10.500000000000002 0.24261904761904765 24.500000000000004 25.500000000000004 11.500000000000002 4.4875000000000025 6.0000000000000009 2.0000000000000004 13.500000000000002 24.500000000000004 4.1625000000000023 4.0000000000000009 4.7875000000000023
decision_type=2 2 2 2 2 10 2 2 2 2 2 2 2 2 2 2 2 2 10 2 2 2 2 2 2 2 2 2 2 2
left_child=12 3 5 21 11 -3 7 22 -9 16 18 -4 13 14 -1 -7 -10 -18 -11 -14 -21 -2 23 -5 -25 29 -13 -28 -16 -19
right_child=1 2 4 6 -6 15 -8 8 9 10 -12 26 19 -15 28 -17 17 25 -20 20 -22 -23 -24 24 -26 -27 27 -29 -30 -31
